{"learner":{"attributes":{"scikit_learn":"{\"_estimator_type\": \"classifier\"}"},"feature_names":["is_home_country","tournament_weight","home_rolling_scored","home_rolling_conceded","home_rolling_points","away_rolling_scored","away_rolling_conceded","away_rolling_points","home_rank","home_fifa_points","home_rank_change","home_points_change","away_rank","away_fifa_points","away_rank_change","away_points_change","rank_difference","points_difference","goals_scored_difference","goals_conceded_difference"],"feature_types":["int","int","float","float","float","float","float","float","float","float","float","float","float","float","float","float","float","float","float","float"],"gradient_booster":{"model":{"cats":{"enc":[],"feature_segments":[],"sorted_idx":[]},"gbtree_model_param":{"num_parallel_tree":"1","num_trees":"300"},"iteration_indptr":[0,3,6,9,12,15,18,21,24,27,30,33,36,39,42,45,48,51,54,57,60,63,66,69,72,75,78,81,84,87,90,93,96,99,102,105,108,111,114,117,120,123,126,129,132,135,138,141,144,147,150,153,156,159,162,165,168,171,174,177,180,183,186,189,192,195,198,201,204,207,210,213,216,219,222,225,228,231,234,237,240,243,246,249,252,255,258,261,264,267,270,273,276,279,282,285,288,291,294,297,300],"tree_info":[0,1,2,0,1,2,0,1,2,0,1,2,0,1,2,0,1,2,0,1,2,0,1,2,0,1,2,0,1,2,0,1,2,0,1,2,0,1,2,0,1,2,0,1,2,0,1,2,0,1,2,0,1,2,0,1,2,0,1,2,0,1,2,0,1,2,0,1,2,0,1,2,0,1,2,0,1,2,0,1,2,0,1,2,0,1,2,0,1,2,0,1,2,0,1,2,0,1,2,0,1,2,0,1,2,0,1,2,0,1,2,0,1,2,0,1,2,0,1,2,0,1,2,0,1,2,0,1,2,0,1,2,0,1,2,0,1,2,0,1,2,0,1,2,0,1,2,0,1,2,0,1,2,0,1,2,0,1,2,0,1,2,0,1,2,0,1,2,0,1,2,0,1,2,0,1,2,0,1,2,0,1,2,0,1,2,0,1,2,0,1,2,0,1,2,0,1,2,0,1,2,0,1,2,0,1,2,0,1,2,0,1,2,0,1,2,0,1,2,0,1,2,0,1,2,0,1,2,0,1,2,0,1,2,0,1,2,0,1,2,0,1,2,0,1,2,0,1,2,0,1,2,0,1,2,0,1,2,0,1,2,0,1,2,0,1,2,0,1,2,0,1,2,0,1,2,0,1,2,0,1,2,0,1,2,0,1,2,0,1,2,0,1,2,0,1,2,0,1,2],"trees":[{"base_weights":[-4.573538E-7,-1.5125968E-1,3.6674425E-1,1.6284782E-1,-2.3993538E-1,2.706969E-1,9.0402347E-1,-1.8537813E-1,2.8140435E-1,-4.0926173E-1,-1.5511286E-1,2.1331242E-1,9.6193564E-1,3.9823648E-1,1.0801159E0,3.2648236E-1,-2.725278E-1,1.8086132E-1,7.3937225E-1,-1.4121675E-1,-4.7426808E-1,-3.2949832E-1,-8.9092E-2,-1.0118442E-1,3.1301028E-1,1.14023834E-1,1.0117371E0,1.4254038E-1,1.3365365E0,9.640457E-1,1.5784096E0,5.3232856E-2,1.1171221E-2,-1.904536E-2,-9.302235E-3,1.78446E-2,4.740082E-3,2.3072762E-2,4.4832192E-2,-2.1214731E-2,-1.0081689E-3,-2.743946E-2,-1.8710017E-2,-9.933836E-3,-1.9827237E-2,1.3052572E-3,-8.702052E-3,1.4548029E-2,-1.2140532E-2,2.033501E-2,8.1473E-3,-1.8956129E-2,4.2958193E-2,5.7705294E-2,3.9829873E-2,2.7411217E-2,2.7023896E-3,2.6190644E-2,7.0233606E-2,4.5057498E-2,6.551398E-2,7.932211E-2,2.5833199E-2],"categories":[],"categories_nodes":[],"categories_segments":[],"categories_sizes":[],"default_left":[0,0,0,0,0,0,0,0,0,0,0,0,0,0,0,0,0,0,0,0,0,0,0,0,0,0,0,0,0,0,0,0,0,0,0,0,0,0,0,0,0,0,0,0,0,0,0,0,0,0,0,0,0,0,0,0,0,0,0,0,0,0,0],"id":0,"left_children":[1,3,5,7,9,11,13,15,17,19,21,23,25,27,29,31,33,35,37,39,41,43,45,47,49,51,53,55,57,59,61,-1,-1,-1,-1,-1,-1,-1,-1,-1,-1,-1,-1,-1,-1,-1,-1,-1,-1,-1,-1,-1,-1,-1,-1,-1,-1,-1,-1,-1,-1,-1,-1],"loss_changes":[8.937483E2,3.1775815E2,2.4253009E2,1.0375324E2,1.2770465E2,1.5816321E2,6.307721E1,2.8575209E1,8.616855E1,5.1656097E1,6.822537E1,1.1566E2,1.2795776E1,4.4368393E1,2.9034729E1,6.8646336E0,5.0488625E0,2.3268566E1,1.4319687E1,1.9894241E1,1.7606628E1,1.419809E1,4.210088E1,4.941111E1,3.9305206E1,6.9727798E0,7.922241E0,5.2502036E0,1.4600677E0,8.206604E0,1.8249512E-2,0E0,0E0,0E0,0E0,0E0,0E0,0E0,0E0,0E0,0E0,0E0,0E0,0E0,0E0,0E0,0E0,0E0,0E0,0E0,0E0,0E0,0E0,0E0,0E0,0E0,0E0,0E0,0E0,0E0,0E0,0E0,0E0],"parents":[2147483647,0,0,1,1,2,2,3,3,4,4,5,5,6,6,7,7,8,8,9,9,10,10,11,11,12,12,13,13,14,14,15,15,16,16,17,17,18,18,19,19,20,20,21,21,22,22,23,23,24,24,25,25,26,26,27,27,28,28,29,29,30,30],"right_children":[2,4,6,8,10,12,14,16,18,20,22,24,26,28,30,32,34,36,38,40,42,44,46,48,50,52,54,56,58,60,62,-1,-1,-1,-1,-1,-1,-1,-1,-1,-1,-1,-1,-1,-1,-1,-1,-1,-1,-1,-1,-1,-1,-1,-1,-1,-1,-1,-1,-1,-1,-1,-1],"split_conditions":[5.5E-1,-9E0,6.2E1,2E0,-2.1E1,2.45E0,1E0,3E1,6.2E1,1E0,-8E-1,0E0,1.36E2,2.8E0,1.22E2,4E0,-5E-1,-1.42E2,5.95E2,-9.5E-1,-4.6E1,1.5E-1,-5E-2,1E0,-1E-1,2E0,-7.5E-1,-9.5E-1,2E0,3.2E0,4.25E0,5.3232856E-2,1.1171221E-2,-1.904536E-2,-9.302235E-3,1.78446E-2,4.740082E-3,2.3072762E-2,4.4832192E-2,-2.1214731E-2,-1.0081689E-3,-2.743946E-2,-1.8710017E-2,-9.933836E-3,-1.9827237E-2,1.3052572E-3,-8.702052E-3,1.4548029E-2,-1.2140532E-2,2.033501E-2,8.1473E-3,-1.8956129E-2,4.2958193E-2,5.7705294E-2,3.9829873E-2,2.7411217E-2,2.7023896E-3,2.6190644E-2,7.0233606E-2,4.5057498E-2,6.551398E-2,7.932211E-2,2.5833199E-2],"split_indices":[19,17,16,9,16,19,9,12,16,13,19,16,8,3,16,12,19,17,13,19,16,18,18,13,18,10,18,18,1,3,5,0,0,0,0,0,0,0,0,0,0,0,0,0,0,0,0,0,0,0,0,0,0,0,0,0,0,0,0,0,0,0,0],"split_type":[0,0,0,0,0,0,0,0,0,0,0,0,0,0,0,0,0,0,0,0,0,0,0,0,0,0,0,0,0,0,0,0,0,0,0,0,0,0,0,0,0,0,0,0,0,0,0,0,0,0,0,0,0,0,0,0,0,0,0,0,0,0,0],"sum_hessian":[1.6109259E4,1.1405707E4,4.703552E3,2.5108667E3,8.89484E3,3.991509E3,7.120429E2,6.3758356E2,1.8732832E3,2.967388E3,5.927452E3,3.6867546E3,3.0475436E2,1.8472427E2,5.273186E2,9.236214E1,5.4522144E2,1.5371989E3,3.3608426E2,5.7980634E2,2.3875815E3,1.6267129E3,4.3007393E3,8.874089E2,2.7993457E3,1.708903E1,2.8766534E2,1.4607051E2,3.865376E1,4.300739E2,9.724472E1,1.0172042E1,8.2190094E1,2.4046706E2,3.0475436E2,5.0371948E2,1.0334794E3,1.2287826E2,2.13206E2,1.7292471E2,4.0688165E2,1.3659017E3,1.0216799E3,5.525453E2,1.0741676E3,1.825678E3,2.475061E3,2.351776E2,6.522313E2,1.7223301E3,1.0770157E3,1.0578923E1,6.5101066E0,1.7048341E2,1.17181915E2,2.5226664E1,1.2084386E2,3.6619349E0,3.499182E1,3.6700726E2,6.3066658E1,9.602407E1,1.220645E0],"tree_param":{"num_deleted":"0","num_feature":"20","num_nodes":"63","size_leaf_vector":"1"}},{"base_weights":[-8.80981E-7,3.6520146E-2,-2.7462366E-1,4.543652E-2,-3.1051132E-1,-4.9207795E-1,-2.2014455E-1,-8.3500944E-2,6.91124E-2,6.950925E-2,-3.5699904E-1,-3.007713E-1,-5.4884547E-1,-2.5008956E-1,2.833548E-2,8.871906E-2,-1.5882537E-1,1.5786164E-1,8.848363E-3,3.1676853E-1,-4.246773E-1,-3.7590432E-1,3.4881246E-1,3.206801E-2,-3.2232034E-1,5.6119554E-2,-5.665391E-1,-2.114144E-1,-4.350261E-1,4.0662012E-1,-8.1070654E-2,1.0404494E-2,3.8834766E-4,-1.7660895E-2,-3.7936405E-3,-6.7552864E-3,8.379564E-3,8.297362E-3,-3.1797492E-4,-8.609011E-3,2.6058793E-2,-2.8798578E-2,2.364282E-3,-2.644355E-2,-1.6282348E-2,5.1910777E-2,-1.5589138E-3,-1.8705219E-2,-1.1393238E-3,5.1910777E-2,-1.9229297E-2,-1.7158255E-2,-2.9119706E-2,-4.9727554E-3,-1.39040565E-2,-2.217764E-2,2.2655837E-2,3.353729E-2,-7.1328427E-3,-2.6891703E-2,-4.5135352E-4],"categories":[],"categories_nodes":[],"categories_segments":[],"categories_sizes":[],"default_left":[0,0,0,0,0,0,0,0,0,0,0,0,0,0,0,0,0,0,0,0,0,0,0,0,0,0,0,0,0,0,0,0,0,0,0,0,0,0,0,0,0,0,0,0,0,0,0,0,0,0,0,0,0,0,0,0,0,0,0,0,0],"id":1,"left_children":[1,3,5,7,9,11,13,15,17,19,21,23,25,27,29,31,33,35,37,39,41,43,45,-1,47,49,51,53,55,57,59,-1,-1,-1,-1,-1,-1,-1,-1,-1,-1,-1,-1,-1,-1,-1,-1,-1,-1,-1,-1,-1,-1,-1,-1,-1,-1,-1,-1,-1,-1],"loss_changes":[1.3957883E2,3.8021896E1,1.92434E1,3.6566486E1,5.462862E0,3.3801422E0,9.740032E0,2.4122482E1,5.4119186E1,4.336501E0,3.7930222E0,1.7682419E0,2.7135162E0,8.258369E0,5.8925767E0,5.4691772E0,2.0828152E1,1.1687576E1,1.4402195E1,2.437751E0,8.766091E-1,1.8861961E0,2.0436594E0,0E0,1.1681452E0,3.8744013E0,6.625366E-1,7.193741E0,1.7229652E0,4.7277527E0,3.6364248E0,0E0,0E0,0E0,0E0,0E0,0E0,0E0,0E0,0E0,0E0,0E0,0E0,0E0,0E0,0E0,0E0,0E0,0E0,0E0,0E0,0E0,0E0,0E0,0E0,0E0,0E0,0E0,0E0,0E0,0E0],"parents":[2147483647,0,0,1,1,2,2,3,3,4,4,5,5,6,6,7,7,8,8,9,9,10,10,11,11,12,12,13,13,14,14,15,15,16,16,17,17,18,18,19,19,20,20,21,21,22,22,24,24,25,25,26,26,27,27,28,28,29,29,30,30],"right_children":[2,4,6,8,10,12,14,16,18,20,22,24,26,28,30,32,34,36,38,40,42,44,46,-1,48,50,52,54,56,58,60,-1,-1,-1,-1,-1,-1,-1,-1,-1,-1,-1,-1,-1,-1,-1,-1,-1,-1,-1,-1,-1,-1,-1,-1,-1,-1,-1,-1,-1,-1],"split_conditions":[2.5E0,2.55E0,-2.6E0,-3.9E1,1.48E2,2.6666668E-1,2E0,2E0,1.44E2,4E0,2.6E0,3.1E1,1.22E2,1.3E0,-3.7E1,1E0,-7.7E1,-5.34E2,5E-1,-1.75E0,7.7E1,-2.05E0,1.5E0,3.206801E-2,2E-2,-5.94E0,3.5E0,2E0,4.5E1,4E0,-9.1E1,1.0404494E-2,3.8834766E-4,-1.7660895E-2,-3.7936405E-3,-6.7552864E-3,8.379564E-3,8.297362E-3,-3.1797492E-4,-8.609011E-3,2.6058793E-2,-2.8798578E-2,2.364282E-3,-2.644355E-2,-1.6282348E-2,5.1910777E-2,-1.5589138E-3,-1.8705219E-2,-1.1393238E-3,5.1910777E-2,-1.9229297E-2,-1.7158255E-2,-2.9119706E-2,-4.9727554E-3,-1.39040565E-2,-2.217764E-2,2.2655837E-2,3.353729E-2,-7.1328427E-3,-2.6891703E-2,-4.5135352E-4],"split_indices":[6,19,19,16,8,18,14,13,8,10,2,8,12,18,17,6,16,17,6,18,16,18,7,0,11,15,6,1,11,1,16,0,0,0,0,0,0,0,0,0,0,0,0,0,0,0,0,0,0,0,0,0,0,0,0,0,0,0,0,0,0],"split_type":[0,0,0,0,0,0,0,0,0,0,0,0,0,0,0,0,0,0,0,0,0,0,0,0,0,0,0,0,0,0,0,0,0,0,0,0,0,0,0,0,0,0,0,0,0,0,0,0,0,0,0,0,0,0,0,0,0,0,0,0,0],"sum_hessian":[1.3914819E4,1.228231E4,1.63251E3,1.1975489E4,3.068205E2,3.2544763E2,1.3070624E3,1.8574414E3,1.0118048E4,3.3388256E1,2.7343225E2,7.591435E1,2.4953328E2,1.1664802E3,1.4058214E2,5.651402E2,1.2923013E3,4.0912915E3,6.026756E3,2.2493141E1,1.0895115E1,2.667546E2,6.6776514E0,1.054366E0,7.4859985E1,7.0291066E0,2.4250418E2,9.6650214E2,1.9997809E2,3.092807E1,1.0965406E2,2.2774306E2,3.3739713E2,3.855465E2,9.0675476E2,1.3109283E2,3.9601987E3,5.31049E2,5.495707E3,6.6776514E0,1.581549E1,8.083472E0,2.8116426E0,6.3613415E1,2.0314117E2,1.7572767E0,4.920375E0,6.3613415E1,1.1246571E1,1.7572767E0,5.27183E0,1.7572767E1,2.2493141E2,3.6164752E2,6.048546E2,1.9857227E2,1.4058213E0,2.0735865E1,1.0192204E1,1.4058213E1,9.559585E1],"tree_param":{"num_deleted":"0","num_feature":"20","num_nodes":"61","size_leaf_vector":"1"}},{"base_weights":[8.9575497E-7,2.2223715E-1,-1.9613716E-1,5.335334E-1,1.2811394E-1,-8.466789E-2,-4.8034105E-1,8.08263E-1,4.5785594E-1,3.8300064E-1,2.556249E-2,-1.8642943E-1,1.0099154E-1,-1.396931E-1,-5.5604535E-1,6.436431E-1,8.763301E-1,7.179582E-1,3.7726915E-1,8.841986E-2,4.3952987E-1,1.3491732E-1,-1.5569927E-1,-8.283794E-2,-3.605063E-1,3.5237753E-1,-7.6380484E-2,-4.9277503E-2,-6.627974E-1,-4.3688396E-1,-7.645549E-1,4.146027E-2,2.6451541E-2,1.4706835E-2,4.4692516E-2,2.5700672E-2,3.945231E-2,1.0406754E-2,2.3256054E-2,-9.7568706E-4,2.297826E-2,3.264334E-2,1.6853819E-2,-1.0392186E-3,1.1340543E-2,-3.8078446E-3,-2.575993E-2,-8.118989E-3,1.8662558E-3,-2.1481903E-2,-6.9497856E-3,2.9366288E-2,1.40143875E-2,-1.4715279E-2,-1.0821497E-3,-1.4419803E-2,3.4256328E-3,1.745268E-2,-3.4670793E-2,-3.1257108E-2,-1.924597E-2,-3.42548E-2,-4.476137E-2],"categories":[],"categories_nodes":[],"categories_segments":[],"categories_sizes":[],"default_left":[0,0,0,0,0,0,0,0,0,0,0,0,0,0,0,0,0,0,0,0,0,0,0,0,0,0,0,0,0,0,0,0,0,0,0,0,0,0,0,0,0,0,0,0,0,0,0,0,0,0,0,0,0,0,0,0,0,0,0,0,0,0,0],"id":2,"left_children":[1,3,5,7,9,11,13,15,17,19,21,23,25,27,29,31,33,35,37,39,41,43,45,47,49,51,53,55,57,59,61,-1,-1,-1,-1,-1,-1,-1,-1,-1,-1,-1,-1,-1,-1,-1,-1,-1,-1,-1,-1,-1,-1,-1,-1,-1,-1,-1,-1,-1,-1,-1,-1],"loss_changes":[8.625028E2,2.717326E2,3.329398E2,4.4399414E1,1.8620709E2,1.4267728E2,7.627899E1,4.6323547E0,3.5164917E1,3.3996704E1,1.0074017E2,8.793149E1,1.19259125E2,2.5493658E1,5.9848022E1,2.5265656E0,3.05542E0,5.375992E0,1.9112503E1,1.3241262E1,3.725531E1,4.5357647E1,5.4648205E1,2.9247065E1,2.7803085E1,1.857483E1,1.8705452E1,1.3011187E1,2.703724E0,1.4860565E1,8.518799E0,0E0,0E0,0E0,0E0,0E0,0E0,0E0,0E0,0E0,0E0,0E0,0E0,0E0,0E0,0E0,0E0,0E0,0E0,0E0,0E0,0E0,0E0,0E0,0E0,0E0,0E0,0E0,0E0,0E0,0E0,0E0,0E0],"parents":[2147483647,0,0,1,1,2,2,3,3,4,4,5,5,6,6,7,7,8,8,9,9,10,10,11,11,12,12,13,13,14,14,15,15,16,16,17,17,18,18,19,19,20,20,21,21,22,22,23,23,24,24,25,25,26,26,27,27,28,28,29,29,30,30],"right_children":[2,4,6,8,10,12,14,16,18,20,22,24,26,28,30,32,34,36,38,40,42,44,46,48,50,52,54,56,58,60,62,-1,-1,-1,-1,-1,-1,-1,-1,-1,-1,-1,-1,-1,-1,-1,-1,-1,-1,-1,-1,-1,-1,-1,-1,-1,-1,-1,-1,-1,-1,-1,-1],"split_conditions":[-5E-2,-1.25E0,1.5E1,-2.6E0,-1.8E1,1E0,1E0,5.3333336E-1,-4.9E1,2E0,5E0,8.666667E-1,-2.2E1,2.8E0,6.2E1,-1.3E1,1.22E2,2E0,5E-2,2E0,-6.4E1,0E0,4.2E1,5E-2,8.3333336E-2,-6.4E1,-3E1,4.7E1,4E0,2E1,9.7E1,4.146027E-2,2.6451541E-2,1.4706835E-2,4.4692516E-2,2.5700672E-2,3.945231E-2,1.0406754E-2,2.3256054E-2,-9.7568706E-4,2.297826E-2,3.264334E-2,1.6853819E-2,-1.0392186E-3,1.1340543E-2,-3.8078446E-3,-2.575993E-2,-8.118989E-3,1.8662558E-3,-2.1481903E-2,-6.9497856E-3,2.9366288E-2,1.40143875E-2,-1.4715279E-2,-1.0821497E-3,-1.4419803E-2,3.4256328E-3,1.745268E-2,-3.4670793E-2,-3.1257108E-2,-1.924597E-2,-3.42548E-2,-4.476137E-2],"split_indices":[19,19,16,19,16,13,9,18,16,13,9,19,16,3,16,16,12,1,18,6,16,18,16,18,18,16,17,12,13,12,16,0,0,0,0,0,0,0,0,0,0,0,0,0,0,0,0,0,0,0,0,0,0,0,0,0,0,0,0,0,0,0,0],"split_type":[0,0,0,0,0,0,0,0,0,0,0,0,0,0,0,0,0,0,0,0,0,0,0,0,0,0,0,0,0,0,0,0,0,0,0,0,0,0,0,0,0,0,0,0,0,0,0,0,0,0,0,0,0,0,0,0,0,0,0,0,0,0,0],"sum_hessian":[1.978517E4,9.275423E3,1.0509747E4,2.152322E3,7.123101E3,7.5498677E3,2.95988E3,4.627467E2,1.6895752E3,2.0428818E3,5.080219E3,4.8768306E3,2.6730369E3,5.3870514E2,2.4211748E3,1.3842424E2,3.2432248E2,3.977823E2,1.291793E3,3.2931973E2,1.7135621E3,3.1687656E3,1.9114537E3,3.058326E3,1.8185046E3,1.105395E3,1.567642E3,4.6024808E2,7.8457054E1,1.5426556E3,8.7851917E2,5.0472374E1,8.795186E1,9.99453E0,3.1432794E2,1.0494256E2,2.9283972E2,4.4275766E2,8.490353E2,2.5585995E2,7.345979E1,5.5419666E2,1.1593655E3,1.1763561E3,1.9924094E3,1.5661428E3,3.45311E2,1.8399929E3,1.2183331E3,1.3852418E3,4.3326285E2,2.5785886E2,8.475361E2,3.1382822E2,1.2538137E3,1.5141711E2,3.0883096E2,1.9989059E0,7.645815E1,3.3131866E2,1.2113369E3,5.5019885E2,3.2832028E2],"tree_param":{"num_deleted":"0","num_feature":"20","num_nodes":"63","size_leaf_vector":"1"}},{"base_weights":[-5.676835E-5,-1.4638793E-1,3.4894893E-1,1.5519612E-1,-2.3269993E-1,2.5819474E-1,8.472402E-1,-1.8004072E-1,2.6762715E-1,-3.9858216E-1,-1.5041465E-1,2.0351087E-1,9.037051E-1,3.808153E-1,1.006093E0,3.1520346E-1,-2.6566708E-1,1.7231329E-1,6.943591E-1,-1.3584699E-1,-4.6303332E-1,-3.2049513E-1,-8.657712E-2,-9.735211E-2,2.975456E-1,1.0757584E-1,9.4937736E-1,1.3774933E-1,1.2432762E0,8.996962E-1,7.2825514E-2,5.074152E-2,1.07939085E-2,-1.3970673E-2,1.844347E-2,1.5185202E-2,3.360139E-3,2.1632388E-2,4.205849E-2,-2.0624429E-2,-9.6964865E-4,-2.6871843E-2,-1.8183945E-2,-9.658108E-3,-1.9313566E-2,3.3046443E-3,-7.3682005E-3,1.3903389E-2,-1.1764153E-2,1.9291585E-2,7.7547315E-3,-1.8696746E-2,4.0756356E-2,5.3969543E-2,3.755788E-2,2.6384342E-2,2.5914984E-3,2.4725234E-2,6.5248415E-2,3.906626E-2,5.281284E-2],"categories":[],"categories_nodes":[],"categories_segments":[],"categories_sizes":[],"default_left":[0,0,0,0,0,0,0,0,0,0,0,0,0,0,0,0,0,0,0,0,0,0,0,0,0,0,0,0,0,0,0,0,0,0,0,0,0,0,0,0,0,0,0,0,0,0,0,0,0,0,0,0,0,0,0,0,0,0,0,0,0],"id":3,"left_children":[1,3,5,7,9,11,13,15,17,19,21,23,25,27,29,31,33,35,37,39,41,43,45,47,49,51,53,55,57,59,-1,-1,-1,-1,-1,-1,-1,-1,-1,-1,-1,-1,-1,-1,-1,-1,-1,-1,-1,-1,-1,-1,-1,-1,-1,-1,-1,-1,-1,-1,-1],"loss_changes":[8.226895E2,2.95482E2,2.1498645E2,9.526099E1,1.203974E2,1.4196872E2,5.3909058E1,2.7012947E1,7.68389E1,4.9476135E1,6.403638E1,1.05100525E2,1.1323181E1,3.9191383E1,2.4855103E1,6.3177614E0,4.830406E0,2.1358044E1,1.28965E1,1.860306E1,1.7167572E1,1.3409012E1,3.9836727E1,4.589868E1,3.552852E1,6.497188E0,6.8443604E0,4.9180145E0,1.2559395E0,7.408203E0,0E0,0E0,0E0,0E0,0E0,0E0,0E0,0E0,0E0,0E0,0E0,0E0,0E0,0E0,0E0,0E0,0E0,0E0,0E0,0E0,0E0,0E0,0E0,0E0,0E0,0E0,0E0,0E0,0E0,0E0,0E0],"parents":[2147483647,0,0,1,1,2,2,3,3,4,4,5,5,6,6,7,7,8,8,9,9,10,10,11,11,12,12,13,13,14,14,15,15,16,16,17,17,18,18,19,19,20,20,21,21,22,22,23,23,24,24,25,25,26,26,27,27,28,28,29,29],"right_children":[2,4,6,8,10,12,14,16,18,20,22,24,26,28,30,32,34,36,38,40,42,44,46,48,50,52,54,56,58,60,-1,-1,-1,-1,-1,-1,-1,-1,-1,-1,-1,-1,-1,-1,-1,-1,-1,-1,-1,-1,-1,-1,-1,-1,-1,-1,-1,-1,-1,-1,-1],"split_conditions":[5.5E-1,-9E0,6.2E1,2E0,-2.1E1,2.45E0,1E0,3E1,6.2E1,1E0,-8E-1,0E0,1.36E2,2.8E0,1.22E2,4E0,1.45674E3,4.5E1,5.95E2,-9.5E-1,-4.6E1,1.5E-1,1E0,1E0,-1E-1,2E0,-7.5E-1,-9.5E-1,2E0,2.25E0,7.2825514E-2,5.074152E-2,1.07939085E-2,-1.3970673E-2,1.844347E-2,1.5185202E-2,3.360139E-3,2.1632388E-2,4.205849E-2,-2.0624429E-2,-9.6964865E-4,-2.6871843E-2,-1.8183945E-2,-9.658108E-3,-1.9313566E-2,3.3046443E-3,-7.3682005E-3,1.3903389E-2,-1.1764153E-2,1.9291585E-2,7.7547315E-3,-1.8696746E-2,4.0756356E-2,5.3969543E-2,3.755788E-2,2.6384342E-2,2.5914984E-3,2.4725234E-2,6.5248415E-2,3.906626E-2,5.281284E-2],"split_indices":[19,17,16,9,16,19,9,12,16,13,19,16,8,3,16,12,13,12,13,19,16,18,0,13,18,10,18,18,1,3,0,0,0,0,0,0,0,0,0,0,0,0,0,0,0,0,0,0,0,0,0,0,0,0,0,0,0,0,0,0,0],"split_type":[0,0,0,0,0,0,0,0,0,0,0,0,0,0,0,0,0,0,0,0,0,0,0,0,0,0,0,0,0,0,0,0,0,0,0,0,0,0,0,0,0,0,0,0,0,0,0,0,0,0,0,0,0,0,0,0,0,0,0,0,0],"sum_hessian":[1.6106928E4,1.1349068E4,4.757859E3,2.52514E3,8.823929E3,4.0261E3,7.317586E2,6.340336E2,1.8911063E3,2.9244888E3,5.89944E3,3.7128818E3,3.1321848E2,1.867676E2,5.44991E2,9.306794E1,5.409657E2,1.5469802E3,3.441261E2,5.7669574E2,2.347793E3,1.6088927E3,4.290547E3,8.841191E2,2.8287627E3,1.717582E1,2.9604263E2,1.4660878E2,4.0158802E1,4.4327805E2,1.01713E2,1.0424271E1,8.264367E1,5.300427E2,1.0923008E1,6.8669946E2,8.6028076E2,1.25087105E2,2.19039E2,1.7009221E2,4.0660355E2,1.3399418E3,1.00785126E3,5.493565E2,1.0595363E3,1.2218096E3,3.0687373E3,2.3727876E2,6.468403E2,1.7453488E3,1.083414E3,1.050104E1,6.6747785E0,1.7609526E2,1.1994739E2,2.55429E1,1.2106589E2,3.7431333E0,3.641567E1,2.5583731E2,1.8744072E2],"tree_param":{"num_deleted":"0","num_feature":"20","num_nodes":"61","size_leaf_vector":"1"}},{"base_weights":[4.4087712E-5,3.5147883E-2,-2.6733857E-1,4.3741994E-2,-3.037288E-1,-4.8216444E-1,-2.1433908E-1,-7.966212E-2,6.623128E-2,6.649762E-2,-3.4974593E-1,-2.9083645E-1,-5.3950536E-1,-1.6270999E-2,-2.5115272E-1,8.581391E-2,-1.5282501E-1,1.5146786E-1,8.057117E-3,3.0345494E-1,-4.183898E-1,-3.6869475E-1,3.4672183E-1,3.172378E-2,-3.1252846E-1,5.7852957E-2,-5.5742085E-1,2.106994E-1,-1.5441361E-1,-2.1427558E-1,-4.173045E-1,5.709401E-3,-1.1516416E-2,-1.721553E-2,-3.6017615E-3,-6.750559E-3,8.046164E-3,7.976917E-3,-3.3442638E-4,-8.537189E-3,2.4919232E-2,-2.8508876E-2,2.3244743E-3,-2.609489E-2,-1.5934357E-2,5.0519105E-2,-1.3542697E-3,-1.8228171E-2,-7.280274E-4,5.019116E-2,-1.8956214E-2,-1.6609881E-2,-2.8677378E-2,1.6497327E-3,3.549039E-2,-1.9175636E-2,-7.1937527E-4,-6.3593173E-3,-1.3186741E-2,-2.1455517E-2,1.2102702E-2],"categories":[],"categories_nodes":[],"categories_segments":[],"categories_sizes":[],"default_left":[0,0,0,0,0,0,0,0,0,0,0,0,0,0,0,0,0,0,0,0,0,0,0,0,0,0,0,0,0,0,0,0,0,0,0,0,0,0,0,0,0,0,0,0,0,0,0,0,0,0,0,0,0,0,0,0,0,0,0,0,0],"id":4,"left_children":[1,3,5,7,9,11,13,15,17,19,21,23,25,27,29,31,33,35,37,39,41,43,45,-1,47,49,51,53,55,57,59,-1,-1,-1,-1,-1,-1,-1,-1,-1,-1,-1,-1,-1,-1,-1,-1,-1,-1,-1,-1,-1,-1,-1,-1,-1,-1,-1,-1,-1,-1],"loss_changes":[1.3061458E2,3.583729E1,1.8283653E1,3.330127E1,5.208641E0,3.3403473E0,9.454231E0,2.2408533E1,5.032105E1,4.0896406E0,3.7026482E0,1.7172542E0,2.644577E0,6.4405766E0,6.6123734E0,5.1193466E0,1.9824318E1,1.1172882E1,1.347663E1,2.2801492E0,8.550496E-1,1.8576927E0,1.9350812E0,0E0,1.151545E0,3.6931307E0,6.7058563E-1,6.872488E0,4.0887E0,3.8308678E0,1.6421432E0,0E0,0E0,0E0,0E0,0E0,0E0,0E0,0E0,0E0,0E0,0E0,0E0,0E0,0E0,0E0,0E0,0E0,0E0,0E0,0E0,0E0,0E0,0E0,0E0,0E0,0E0,0E0,0E0,0E0,0E0],"parents":[2147483647,0,0,1,1,2,2,3,3,4,4,5,5,6,6,7,7,8,8,9,9,10,10,11,11,12,12,13,13,14,14,15,15,16,16,17,17,18,18,19,19,20,20,21,21,22,22,24,24,25,25,26,26,27,27,28,28,29,29,30,30],"right_children":[2,4,6,8,10,12,14,16,18,20,22,24,26,28,30,32,34,36,38,40,42,44,46,-1,48,50,52,54,56,58,60,-1,-1,-1,-1,-1,-1,-1,-1,-1,-1,-1,-1,-1,-1,-1,-1,-1,-1,-1,-1,-1,-1,-1,-1,-1,-1,-1,-1,-1,-1],"split_conditions":[2.5E0,2.55E0,-2.6E0,-3.9E1,1.48E2,2.6666668E-1,1.37E2,2E0,1.44E2,4E0,2.6E0,3.1E1,1.22E2,2E0,1.3E0,1.25E0,-7.7E1,-5.34E2,5E-1,-1.75E0,7.7E1,-2.05E0,1.5E0,3.172378E-2,2E-2,-5.94E0,3.5E0,1.3E2,6.666667E-1,2E0,1.6666666E0,5.709401E-3,-1.1516416E-2,-1.721553E-2,-3.6017615E-3,-6.750559E-3,8.046164E-3,7.976917E-3,-3.3442638E-4,-8.537189E-3,2.4919232E-2,-2.8508876E-2,2.3244743E-3,-2.609489E-2,-1.5934357E-2,5.0519105E-2,-1.3542697E-3,-1.8228171E-2,-7.280274E-4,5.019116E-2,-1.8956214E-2,-1.6609881E-2,-2.8677378E-2,1.6497327E-3,3.549039E-2,-1.9175636E-2,-7.1937527E-4,-6.3593173E-3,-1.3186741E-2,-2.1455517E-2,1.2102702E-2],"split_indices":[6,19,19,16,8,18,12,13,8,10,2,8,12,1,18,18,16,17,6,18,16,18,7,0,11,15,6,8,5,1,7,0,0,0,0,0,0,0,0,0,0,0,0,0,0,0,0,0,0,0,0,0,0,0,0,0,0,0,0,0,0],"split_type":[0,0,0,0,0,0,0,0,0,0,0,0,0,0,0,0,0,0,0,0,0,0,0,0,0,0,0,0,0,0,0,0,0,0,0,0,0,0,0,0,0,0,0,0,0,0,0,0,0,0,0,0,0,0,0,0,0,0,0,0,0],"sum_hessian":[1.3913677E4,1.2299751E4,1.6139257E3,1.1996387E4,3.0336444E2,3.177745E2,1.2961511E3,1.8488362E3,1.0147551E4,3.3488773E1,2.6987567E2,7.467624E1,2.4309827E2,2.0337532E2,1.0927758E3,5.667706E2,1.2820656E3,4.115675E3,6.0318755E3,2.2746881E1,1.0741891E1,2.631858E2,6.6898866E0,1.0634519E0,7.361279E1,7.013589E0,2.3608467E2,7.6749504E1,1.2662582E2,8.9616327E2,1.9661249E2,5.2067804E2,4.60926E1,3.7944772E2,9.026178E2,1.3107585E2,3.9845989E3,5.3420435E2,5.4976714E3,6.6627407E0,1.608414E1,7.927106E0,2.814785E0,6.2444588E1,2.0074121E2,1.7968304E0,4.893056E0,6.2478497E1,1.11342945E1,1.8062384E0,5.2073507E0,1.7218128E1,2.1886655E2,5.7384266E1,1.9365238E1,4.7375347E1,7.925047E1,3.25893E2,5.7027026E2,1.9349712E2,3.115384E0],"tree_param":{"num_deleted":"0","num_feature":"20","num_nodes":"61","size_leaf_vector":"1"}},{"base_weights":[1.5212746E-5,1.7960303E-1,-2.2403285E-1,2.685093E-1,-1.3200979E-1,-1.16371356E-1,-4.870248E-1,5.5157864E-1,1.8632586E-1,2.2130816E-1,-2.5796223E-1,-2.1727939E-1,8.234145E-2,-1.7817521E-1,-5.519514E-1,7.8763866E-1,4.8209786E-1,3.8601422E-1,1.0607393E-1,-2.4150777E-1,2.9626545E-1,-1.5470822E-1,-5.159376E-1,-3.192949E-1,-6.338406E-2,3.2922208E-1,-7.707288E-2,-5.380483E-1,-3.879019E-2,-4.3457854E-1,-7.358361E-1,3.176796E-2,4.2465717E-2,3.4502644E-2,2.0274695E-2,2.1409788E-3,2.384153E-2,9.988671E-4,1.0601331E-2,-2.0476267E-2,-8.198133E-4,5.527216E-3,1.9471945E-2,-1.4387989E-2,-4.2191553E-3,-2.326275E-2,-3.6676716E-2,-1.4178689E-2,-3.199153E-2,-1.3373257E-3,-1.5139959E-2,2.7606145E-2,1.3018884E-2,-1.4397859E-2,-1.2450417E-3,-2.0238724E-2,-4.1021295E-2,6.8697997E-4,-2.7617792E-2,-3.1840604E-2,-1.8981464E-2,-3.3035938E-2,-4.2777162E-2],"categories":[],"categories_nodes":[],"categories_segments":[],"categories_sizes":[],"default_left":[0,0,0,0,0,0,0,0,0,0,0,0,0,0,0,0,0,0,0,0,0,0,0,0,0,0,0,0,0,0,0,0,0,0,0,0,0,0,0,0,0,0,0,0,0,0,0,0,0,0,0,0,0,0,0,0,0,0,0,0,0,0,0],"id":5,"left_children":[1,3,5,7,9,11,13,15,17,19,21,23,25,27,29,31,33,35,37,39,41,43,45,47,49,51,53,55,57,59,61,-1,-1,-1,-1,-1,-1,-1,-1,-1,-1,-1,-1,-1,-1,-1,-1,-1,-1,-1,-1,-1,-1,-1,-1,-1,-1,-1,-1,-1,-1,-1,-1],"loss_changes":[7.959815E2,3.0425284E2,2.4915878E2,1.9865424E2,1.08558945E2,1.2527128E2,5.1161926E1,3.1141846E1,1.0609239E2,2.2318872E1,4.7810394E1,6.502449E1,8.284926E1,2.2326653E1,4.525885E1,3.550171E0,2.3414734E1,5.914279E1,4.3103527E1,3.3949466E0,9.515049E0,1.2003075E1,5.321579E0,2.834288E1,1.448976E1,1.2530045E1,1.4070929E1,4.345894E0,8.700089E0,1.4109619E1,6.8201904E0,0E0,0E0,0E0,0E0,0E0,0E0,0E0,0E0,0E0,0E0,0E0,0E0,0E0,0E0,0E0,0E0,0E0,0E0,0E0,0E0,0E0,0E0,0E0,0E0,0E0,0E0,0E0,0E0,0E0,0E0,0E0,0E0],"parents":[2147483647,0,0,1,1,2,2,3,3,4,4,5,5,6,6,7,7,8,8,9,9,10,10,11,11,12,12,13,13,14,14,15,15,16,16,17,17,18,18,19,19,20,20,21,21,22,22,23,23,24,24,25,25,26,26,27,27,28,28,29,29,30,30],"right_children":[2,4,6,8,10,12,14,16,18,20,22,24,26,28,30,32,34,36,38,40,42,44,46,48,50,52,54,56,58,60,62,-1,-1,-1,-1,-1,-1,-1,-1,-1,-1,-1,-1,-1,-1,-1,-1,-1,-1,-1,-1,-1,-1,-1,-1,-1,-1,-1,-1,-1,-1,-1,-1],"split_conditions":[2E-1,1E0,1.5E1,-1.25E0,5E0,1E0,1E0,-2.6E0,-3.1E1,3.4E1,4.2E1,-5E-2,-2.3E1,-7.5E-1,6.1E1,5.3333336E-1,-4.9E1,1E0,2.6666668E-1,5E-2,-1E-1,3.3E1,8.3E1,2.5E0,1.5833334E0,-6.4E1,-3E1,2.6666667E0,3.2E0,2E1,9.7E1,3.176796E-2,4.2465717E-2,3.4502644E-2,2.0274695E-2,2.1409788E-3,2.384153E-2,9.988671E-4,1.0601331E-2,-2.0476267E-2,-8.198133E-4,5.527216E-3,1.9471945E-2,-1.4387989E-2,-4.2191553E-3,-2.326275E-2,-3.6676716E-2,-1.4178689E-2,-3.199153E-2,-1.3373257E-3,-1.5139959E-2,2.7606145E-2,1.3018884E-2,-1.4397859E-2,-1.2450417E-3,-2.0238724E-2,-4.1021295E-2,6.8697997E-4,-2.7617792E-2,-3.1840604E-2,-1.8981464E-2,-3.3035938E-2,-4.2777162E-2],"split_indices":[19,16,16,19,9,13,9,19,16,12,16,18,16,18,16,18,16,13,18,18,18,12,16,19,19,16,17,3,3,12,16,0,0,0,0,0,0,0,0,0,0,0,0,0,0,0,0,0,0,0,0,0,0,0,0,0,0,0,0,0,0,0,0],"split_type":[0,0,0,0,0,0,0,0,0,0,0,0,0,0,0,0,0,0,0,0,0,0,0,0,0,0,0,0,0,0,0,0,0,0,0,0,0,0,0,0,0,0,0,0,0,0,0,0,0,0,0,0,0,0,0,0,0,0,0,0,0,0,0],"sum_hessian":[1.9780672E4,1.097986E4,8.800812E3,8.542685E3,2.4371753E3,6.2455156E3,2.5552954E3,1.9208551E3,6.6218296E3,6.4029156E2,1.7968838E3,4.1420527E3,2.1034626E3,4.4451657E2,2.1107788E3,4.3445724E2,1.486398E3,1.8972219E3,4.724608E3,8.893705E1,5.513545E2,1.2844042E3,5.124797E2,2.4902312E3,1.6518215E3,8.24899E2,1.2785638E3,1.2330353E2,3.2121304E2,1.2904519E3,8.20327E2,1.2849648E2,3.0596075E2,3.9798618E2,1.0884117E3,3.972997E2,1.4999221E3,2.6071997E3,2.1174082E3,5.0457577E1,3.8479473E1,1.8492767E2,3.6642682E2,4.430618E2,8.4134235E2,4.1820865E2,9.427102E1,2.2422366E3,2.4799463E2,1.4335569E3,2.1826466E2,1.929985E2,6.3190045E2,2.5268163E2,1.0258822E3,8.542087E1,3.7882664E1,2.9228958E2,2.892344E1,2.734535E2,1.01699835E3,5.0804416E2,3.1228284E2],"tree_param":{"num_deleted":"0","num_feature":"20","num_nodes":"63","size_leaf_vector":"1"}},{"base_weights":[-1.2844746E-4,-1.4167865E-1,3.3230987E-1,1.4770313E-1,-2.2561331E-1,2.4638589E-1,7.96698E-1,-1.7411654E-1,2.5396642E-1,-3.9480084E-1,-1.4870109E-1,1.5888135E-1,6.026706E-1,3.642678E-1,9.4127536E-1,3.016178E-1,-2.5786382E-1,1.6348498E-1,6.5312463E-1,-1.3132612E-1,-4.636397E-1,-1.962223E-2,-2.2908354E-1,-1.0761717E-1,2.4633797E-1,4.5764545E-1,9.094458E-1,1.3276327E-1,1.163232E0,7.918508E-1,1.2138643E0,4.826606E-2,1.03014195E-2,-1.35443425E-2,2.0832725E-2,1.6268095E-2,4.171322E-3,2.030888E-2,3.9529216E-2,-2.0311996E-2,-9.806806E-4,-2.8204719E-2,-1.9891838E-2,-9.812108E-3,1.1207086E-3,-2.0361958E-2,-9.212974E-3,1.258029E-2,-1.1582783E-2,1.6662395E-2,5.751034E-3,3.4866463E-2,1.758995E-2,6.128648E-3,4.7372114E-2,2.505326E-2,2.522043E-3,2.3533463E-2,6.096412E-2,9.183989E-3,4.118335E-2,1.2823285E-3,6.1481714E-2],"categories":[],"categories_nodes":[],"categories_segments":[],"categories_sizes":[],"default_left":[0,0,0,0,0,0,0,0,0,0,0,0,0,0,0,0,0,0,0,0,0,0,0,0,0,0,0,0,0,0,0,0,0,0,0,0,0,0,0,0,0,0,0,0,0,0,0,0,0,0,0,0,0,0,0,0,0,0,0,0,0,0,0],"id":6,"left_children":[1,3,5,7,9,11,13,15,17,19,21,23,25,27,29,31,33,35,37,39,41,43,45,47,49,51,53,55,57,59,61,-1,-1,-1,-1,-1,-1,-1,-1,-1,-1,-1,-1,-1,-1,-1,-1,-1,-1,-1,-1,-1,-1,-1,-1,-1,-1,-1,-1,-1,-1,-1,-1],"loss_changes":[7.5766516E2,2.743243E2,1.9166791E2,8.6892746E1,1.1385513E2,1.264516E2,4.656671E1,2.5217802E1,6.886134E1,4.954959E1,6.245552E1,7.6009125E1,3.5175507E1,3.492096E1,2.1916992E1,5.822735E0,4.830776E0,2.0164742E1,1.1646149E1,1.7436306E1,1.4108276E1,1.7164265E1,2.9548462E1,3.5980816E1,2.7978455E1,1.3586517E1,7.5312347E0,4.466852E0,1.0749054E0,6.92453E0,3.659912E0,0E0,0E0,0E0,0E0,0E0,0E0,0E0,0E0,0E0,0E0,0E0,0E0,0E0,0E0,0E0,0E0,0E0,0E0,0E0,0E0,0E0,0E0,0E0,0E0,0E0,0E0,0E0,0E0,0E0,0E0,0E0,0E0],"parents":[2147483647,0,0,1,1,2,2,3,3,4,4,5,5,6,6,7,7,8,8,9,9,10,10,11,11,12,12,13,13,14,14,15,15,16,16,17,17,18,18,19,19,20,20,21,21,22,22,23,23,24,24,25,25,26,26,27,27,28,28,29,29,30,30],"right_children":[2,4,6,8,10,12,14,16,18,20,22,24,26,28,30,32,34,36,38,40,42,44,46,48,50,52,54,56,58,60,62,-1,-1,-1,-1,-1,-1,-1,-1,-1,-1,-1,-1,-1,-1,-1,-1,-1,-1,-1,-1,-1,-1,-1,-1,-1,-1,-1,-1,-1,-1,-1,-1],"split_conditions":[5.5E-1,-9E0,6.2E1,2E0,-2.4E1,1.8E0,1E0,3E1,6.2E1,1E0,-5E-2,0E0,2.8E0,2.8E0,1.04E2,4E0,2.7E0,-1.42E2,5.95E2,-9.5E-1,-6.2E1,-8E-1,-1.2E0,1E0,-1E-1,1E0,1.36E2,-9.5E-1,2E0,-3E1,1.2E0,4.826606E-2,1.03014195E-2,-1.35443425E-2,2.0832725E-2,1.6268095E-2,4.171322E-3,2.030888E-2,3.9529216E-2,-2.0311996E-2,-9.806806E-4,-2.8204719E-2,-1.9891838E-2,-9.812108E-3,1.1207086E-3,-2.0361958E-2,-9.212974E-3,1.258029E-2,-1.1582783E-2,1.6662395E-2,5.751034E-3,3.4866463E-2,1.758995E-2,6.128648E-3,4.7372114E-2,2.505326E-2,2.522043E-3,2.3533463E-2,6.096412E-2,9.183989E-3,4.118335E-2,1.2823285E-3,6.1481714E-2],"split_indices":[19,17,16,9,16,19,9,12,16,13,18,16,19,3,16,12,18,17,13,19,16,19,19,13,18,0,8,18,1,15,3,0,0,0,0,0,0,0,0,0,0,0,0,0,0,0,0,0,0,0,0,0,0,0,0,0,0,0,0,0,0,0,0],"split_type":[0,0,0,0,0,0,0,0,0,0,0,0,0,0,0,0,0,0,0,0,0,0,0,0,0,0,0,0,0,0,0,0,0,0,0,0,0,0,0,0,0,0,0,0,0,0,0,0,0,0,0,0,0,0,0,0,0,0,0,0,0,0,0],"sum_hessian":[1.6099107E4,1.1291731E4,4.807376E3,2.5386077E3,8.753124E3,4.0580588E3,7.4931696E2,6.300016E2,1.9086061E3,2.7342747E3,6.018849E3,3.2590684E3,7.9899054E2,1.8863383E2,5.606831E2,9.391381E1,5.3608777E2,1.5570603E3,3.5154584E2,5.67008E2,2.1672666E3,2.310259E3,3.7085898E3,8.052064E2,2.453862E3,5.442114E2,2.5477908E2,1.4715964E2,4.1474194E1,3.6468137E2,1.9600175E2,1.0677614E1,8.32362E1,5.2652057E2,9.567185E0,5.142308E2,1.0428295E3,1.27123184E2,2.2442264E2,1.6307054E2,4.0393747E2,8.547833E2,1.3124833E3,4.4343915E2,1.86682E3,7.438868E2,2.9647031E3,2.0640799E2,5.9879846E2,1.4756759E3,9.781861E2,1.649968E2,3.7921463E2,1.1930689E1,2.428484E2,2.5954643E1,1.21204994E2,3.8088648E0,3.766533E1,1.8466393E1,3.46215E2,2.6016572E0,1.934001E2],"tree_param":{"num_deleted":"0","num_feature":"20","num_nodes":"63","size_leaf_vector":"1"}},{"base_weights":[1.7225588E-4,3.3943817E-2,-2.6028827E-1,4.227801E-2,-2.9824924E-1,-4.7262856E-1,-2.0870826E-1,-7.578917E-2,6.36373E-2,6.3001715E-2,-3.437816E-1,-2.8128195E-1,-5.305764E-1,-2.3849145E-1,3.61412E-2,6.841103E-2,-1.5435183E-1,1.454919E-1,7.494258E-3,2.9018858E-1,-4.12573E-1,-3.627158E-1,3.4128493E-1,3.1341136E-2,-3.0309972E-1,6.452961E-2,-5.487868E-1,-2.009325E-1,-4.208207E-1,3.906139E-1,-6.919615E-2,5.1457896E-3,-1.4362617E-2,-1.6951341E-2,-4.003119E-3,-6.7393035E-3,7.73438E-3,7.6949145E-3,-3.4146622E-4,2.0091677E-2,-2.3512227E-2,-2.8239593E-2,2.2623462E-3,-2.5800815E-2,-1.564906E-2,4.9026743E-2,-1.2695348E-3,-1.7754804E-2,-4.5734222E-4,4.908925E-2,-1.8577559E-2,-1.6083375E-2,-2.8259942E-2,-4.628008E-3,-1.3306948E-2,-2.1477168E-2,2.3086788E-2,3.1946924E-2,-6.9446275E-3,-2.6250148E-2,4.4813332E-5],"categories":[],"categories_nodes":[],"categories_segments":[],"categories_sizes":[],"default_left":[0,0,0,0,0,0,0,0,0,0,0,0,0,0,0,0,0,0,0,0,0,0,0,0,0,0,0,0,0,0,0,0,0,0,0,0,0,0,0,0,0,0,0,0,0,0,0,0,0,0,0,0,0,0,0,0,0,0,0,0,0],"id":7,"left_children":[1,3,5,7,9,11,13,15,17,19,21,23,25,27,29,31,33,35,37,39,41,43,45,-1,47,49,51,53,55,57,59,-1,-1,-1,-1,-1,-1,-1,-1,-1,-1,-1,-1,-1,-1,-1,-1,-1,-1,-1,-1,-1,-1,-1,-1,-1,-1,-1,-1,-1,-1],"loss_changes":[1.2237683E2,3.410928E1,1.7391006E1,3.030493E1,4.9816113E0,3.302452E0,9.3907585E0,2.0867922E1,4.6758892E1,3.8577957E0,3.5993538E0,1.6658134E0,2.612564E0,7.771393E0,5.269194E0,8.006425E0,1.632775E1,1.0689957E1,1.2659699E1,2.226527E0,8.337736E-1,1.8301506E0,1.8348284E0,0E0,1.1188588E0,3.5470402E0,6.7868805E-1,6.7107887E0,1.6997566E0,4.3375564E0,3.4854257E0,0E0,0E0,0E0,0E0,0E0,0E0,0E0,0E0,0E0,0E0,0E0,0E0,0E0,0E0,0E0,0E0,0E0,0E0,0E0,0E0,0E0,0E0,0E0,0E0,0E0,0E0,0E0,0E0,0E0,0E0],"parents":[2147483647,0,0,1,1,2,2,3,3,4,4,5,5,6,6,7,7,8,8,9,9,10,10,11,11,12,12,13,13,14,14,15,15,16,16,17,17,18,18,19,19,20,20,21,21,22,22,24,24,25,25,26,26,27,27,28,28,29,29,30,30],"right_children":[2,4,6,8,10,12,14,16,18,20,22,24,26,28,30,32,34,36,38,40,42,44,46,-1,48,50,52,54,56,58,60,-1,-1,-1,-1,-1,-1,-1,-1,-1,-1,-1,-1,-1,-1,-1,-1,-1,-1,-1,-1,-1,-1,-1,-1,-1,-1,-1,-1,-1,-1],"split_conditions":[2.5E0,2.55E0,-2.6E0,-3.9E1,1.48E2,2.6666668E-1,2E0,1.9E1,1.44E2,4E0,2.6E0,3.1E1,1.22E2,1.3E0,-3.7E1,1.25E0,-7.7E1,-5.34E2,5E-1,1.136E3,7.7E1,-2.05E0,1.5E0,3.1341136E-2,2E-2,-5.94E0,3.5E0,2E0,4.5E1,4E0,-9.1E1,5.1457896E-3,-1.4362617E-2,-1.6951341E-2,-4.003119E-3,-6.7393035E-3,7.73438E-3,7.6949145E-3,-3.4146622E-4,2.0091677E-2,-2.3512227E-2,-2.8239593E-2,2.2623462E-3,-2.5800815E-2,-1.564906E-2,4.9026743E-2,-1.2695348E-3,-1.7754804E-2,-4.5734222E-4,4.908925E-2,-1.8577559E-2,-1.6083375E-2,-2.8259942E-2,-4.628008E-3,-1.3306948E-2,-2.1477168E-2,2.3086788E-2,3.1946924E-2,-6.9446275E-3,-2.6250148E-2,4.4813332E-5],"split_indices":[6,19,19,16,8,18,14,13,8,10,2,8,12,18,17,18,16,17,6,9,16,18,7,0,11,15,6,1,11,1,16,0,0,0,0,0,0,0,0,0,0,0,0,0,0,0,0,0,0,0,0,0,0,0,0,0,0,0,0,0,0],"split_type":[0,0,0,0,0,0,0,0,0,0,0,0,0,0,0,0,0,0,0,0,0,0,0,0,0,0,0,0,0,0,0,0,0,0,0,0,0,0,0,0,0,0,0,0,0,0,0,0,0,0,0,0,0,0,0,0,0,0,0,0,0],"sum_hessian":[1.3910525E4,1.2314664E4,1.5958615E3,1.2014122E4,3.005424E2,3.102964E2,1.2855651E3,1.8401001E3,1.0174021E4,3.3597572E1,2.6694482E2,7.348836E1,2.3680801E2,1.1461721E3,1.39393E2,6.49001E2,1.1910991E3,4.1385576E3,6.0354644E3,2.3000034E1,1.0597536E1,2.6022318E2,6.7216396E0,1.0735807E0,7.241478E1,6.9556932E0,2.2985233E2,9.521382E2,1.9403389E2,3.131296E1,1.0808005E2,5.9225397E2,5.6747E1,3.406698E2,8.504293E2,1.3103555E2,4.007522E3,5.369948E2,5.498469E3,2.0466732E1,2.533303E0,7.7778516E0,2.819684E0,6.1446613E1,1.9877657E2,1.8398999E0,4.8817396E0,6.1354057E1,1.106072E1,1.8380799E0,5.1176133E0,1.6878418E1,2.129739E2,3.585884E2,5.935498E2,1.926432E2,1.3906747E0,2.1175528E1,1.0137432E1,1.3540011E1,9.454004E1],"tree_param":{"num_deleted":"0","num_feature":"20","num_nodes":"61","size_leaf_vector":"1"}},{"base_weights":[-1.6609267E-5,2.0506944E-1,-1.812918E-1,4.933151E-1,1.17917605E-1,-7.7201694E-2,-4.4179603E-1,7.484871E-1,4.2310715E-1,3.5322145E-1,2.3205185E-2,-1.7245741E-1,9.944966E-2,-1.2618907E-1,-5.1107466E-1,5.9585404E-1,8.1167465E-1,6.518033E-1,3.444503E-1,8.28108E-2,4.0510482E-1,1.2362108E-1,-1.434589E-1,-7.658197E-2,-3.3384684E-1,3.2454208E-1,-6.4305E-2,-1.1116593E-2,-4.825163E-1,-4.013523E-1,-7.0070696E-1,3.8754E-2,2.427527E-2,1.3168255E-2,4.1412108E-2,2.3374228E-2,3.6000915E-2,2.0684253E-2,6.068449E-3,-1.0464482E-3,2.1970516E-2,3.0216997E-2,1.5474036E-2,-1.1655125E-3,1.0515367E-2,-3.5050572E-3,-2.3804752E-2,-7.527721E-3,1.753705E-3,-1.9943904E-2,-6.2923185E-3,2.7116975E-2,1.2887388E-2,-1.1506462E-2,2.1103532E-4,-1.6681522E-2,3.3382883E-3,-3.6179736E-2,-1.5665565E-2,-2.8586263E-2,-1.7706057E-2,-3.0982602E-2,-4.0838335E-2],"categories":[],"categories_nodes":[],"categories_segments":[],"categories_sizes":[],"default_left":[0,0,0,0,0,0,0,0,0,0,0,0,0,0,0,0,0,0,0,0,0,0,0,0,0,0,0,0,0,0,0,0,0,0,0,0,0,0,0,0,0,0,0,0,0,0,0,0,0,0,0,0,0,0,0,0,0,0,0,0,0,0,0],"id":8,"left_children":[1,3,5,7,9,11,13,15,17,19,21,23,25,27,29,31,33,35,37,39,41,43,45,47,49,51,53,55,57,59,61,-1,-1,-1,-1,-1,-1,-1,-1,-1,-1,-1,-1,-1,-1,-1,-1,-1,-1,-1,-1,-1,-1,-1,-1,-1,-1,-1,-1,-1,-1,-1,-1],"loss_changes":[7.349979E2,2.3296313E2,2.8452887E2,3.825757E1,1.5875284E2,1.2621071E2,6.543976E1,3.9845886E0,3.0191833E1,2.864891E1,8.504096E1,7.536911E1,9.6884125E1,2.2160229E1,5.0826538E1,2.3807182E0,2.7332E0,5.0900726E0,1.9414673E1,1.2230626E1,3.2487152E1,4.0391014E1,4.658691E1,2.5262733E1,2.4508224E1,1.596209E1,1.72962E1,1.0311736E1,5.15518E0,1.2337265E1,7.9506226E0,0E0,0E0,0E0,0E0,0E0,0E0,0E0,0E0,0E0,0E0,0E0,0E0,0E0,0E0,0E0,0E0,0E0,0E0,0E0,0E0,0E0,0E0,0E0,0E0,0E0,0E0,0E0,0E0,0E0,0E0,0E0,0E0],"parents":[2147483647,0,0,1,1,2,2,3,3,4,4,5,5,6,6,7,7,8,8,9,9,10,10,11,11,12,12,13,13,14,14,15,15,16,16,17,17,18,18,19,19,20,20,21,21,22,22,23,23,24,24,25,25,26,26,27,27,28,28,29,29,30,30],"right_children":[2,4,6,8,10,12,14,16,18,20,22,24,26,28,30,32,34,36,38,40,42,44,46,48,50,52,54,56,58,60,62,-1,-1,-1,-1,-1,-1,-1,-1,-1,-1,-1,-1,-1,-1,-1,-1,-1,-1,-1,-1,-1,-1,-1,-1,-1,-1,-1,-1,-1,-1,-1,-1],"split_conditions":[-5E-2,-1.25E0,1.4E1,-2.6E0,-1.8E1,1E0,1E0,5.3333336E-1,-4.4E1,2E0,5E0,8.666667E-1,-2.2E1,1.05E0,6.1E1,-1.3E1,1.22E2,2E0,2.38E2,2E0,-6.4E1,0E0,4.2E1,5E-2,8.3333336E-2,-6.4E1,1E0,2.9E1,5E-1,2E1,9.3E1,3.8754E-2,2.427527E-2,1.3168255E-2,4.1412108E-2,2.3374228E-2,3.6000915E-2,2.0684253E-2,6.068449E-3,-1.0464482E-3,2.1970516E-2,3.0216997E-2,1.5474036E-2,-1.1655125E-3,1.0515367E-2,-3.5050572E-3,-2.3804752E-2,-7.527721E-3,1.753705E-3,-1.9943904E-2,-6.2923185E-3,2.7116975E-2,1.2887388E-2,-1.1506462E-2,2.1103532E-4,-1.6681522E-2,3.3382883E-3,-3.6179736E-2,-1.5665565E-2,-2.8586263E-2,-1.7706057E-2,-3.0982602E-2,-4.0838335E-2],"split_indices":[19,19,16,19,16,13,9,18,16,13,9,19,16,19,16,16,12,1,13,6,16,18,16,18,18,16,0,12,4,12,16,0,0,0,0,0,0,0,0,0,0,0,0,0,0,0,0,0,0,0,0,0,0,0,0,0,0,0,0,0,0,0,0],"split_type":[0,0,0,0,0,0,0,0,0,0,0,0,0,0,0,0,0,0,0,0,0,0,0,0,0,0,0,0,0,0,0,0,0,0,0,0,0,0,0,0,0,0,0,0,0,0,0,0,0,0,0,0,0,0,0,0,0,0,0,0,0,0,0],"sum_hessian":[1.9768223E4,9.274907E3,1.0493315E4,2.1521694E3,7.1227383E3,7.4984453E3,2.9948704E3,4.6229376E2,1.6898757E3,2.043394E3,5.079344E3,4.8715713E3,2.626874E3,5.395787E2,2.4552917E3,1.384032E2,3.2389056E2,4.3060312E2,1.2592726E3,3.2936652E2,1.7140275E3,3.1697896E3,1.9095547E3,3.0569976E3,1.8145737E3,1.1058385E3,1.5210355E3,4.0864264E2,1.3093604E2,1.5573285E3,8.979633E2,5.0445972E1,8.795722E1,9.995042E0,3.1389554E2,1.1843675E2,3.1216638E2,9.603632E2,2.9890942E2,2.558713E2,7.349521E1,5.541411E2,1.1598864E3,1.176455E3,1.9933346E3,1.5655153E3,3.4403943E2,1.838583E3,1.2184147E3,1.3816758E3,4.328979E2,2.578718E2,8.479667E2,4.4407278E2,1.0769628E3,7.884766E1,3.2979498E2,5.2648098E1,7.828793E1,3.356091E2,1.2217194E3,5.3244696E2,3.6551636E2],"tree_param":{"num_deleted":"0","num_feature":"20","num_nodes":"63","size_leaf_vector":"1"}},{"base_weights":[-2.1410456E-4,-1.3714026E-1,3.1674632E-1,1.4099234E-1,-2.1882445E-1,2.3437321E-1,7.466824E-1,-1.6906816E-1,2.4200933E-1,-3.666328E-1,-1.3476957E-1,1.5062669E-1,5.7107455E-1,3.4598088E-1,8.7586105E-1,2.908865E-1,-2.5123692E-1,4.8121288E-1,1.07388556E-1,-1.22310996E-1,-4.2211986E-1,-2.7706864E-1,-5.9018202E-2,-1.0389305E-1,2.3357256E-1,4.3436426E-1,8.5744953E-1,1.2480507E-1,1.0949563E0,6.9805855E-1,1.0816596E0,4.61528E-2,9.932598E-3,-1.7900703E-2,-8.347551E-3,1.9039711E-2,4.212932E-2,2.8455854E-4,9.836529E-3,-1.9272937E-2,-5.7480164E-4,-2.5815353E-2,-1.6327351E-2,-7.6046125E-3,-1.7413396E-2,2.3297765E-3,-7.1304566E-3,1.20397275E-2,-1.123714E-2,1.587238E-2,5.315925E-3,2.5418881E-2,6.5027545E-3,3.3044957E-3,4.469115E-2,3.829406E-2,4.080481E-3,3.3341076E-2,5.964155E-2,3.1440135E-2,4.6399094E-2,4.730836E-2,6.3638866E-2],"categories":[],"categories_nodes":[],"categories_segments":[],"categories_sizes":[],"default_left":[0,0,0,0,0,0,0,0,0,0,0,0,0,0,0,0,0,0,0,0,0,0,0,0,0,0,0,0,0,0,0,0,0,0,0,0,0,0,0,0,0,0,0,0,0,0,0,0,0,0,0,0,0,0,0,0,0,0,0,0,0,0,0],"id":9,"left_children":[1,3,5,7,9,11,13,15,17,19,21,23,25,27,29,31,33,35,37,39,41,43,45,47,49,51,53,55,57,59,61,-1,-1,-1,-1,-1,-1,-1,-1,-1,-1,-1,-1,-1,-1,-1,-1,-1,-1,-1,-1,-1,-1,-1,-1,-1,-1,-1,-1,-1,-1,-1,-1],"loss_changes":[6.982462E2,2.5528023E2,1.7171304E2,7.994625E1,1.0785196E2,1.1480734E2,4.006772E1,2.3788733E1,6.192527E1,4.2622955E1,5.96801E1,6.893915E1,3.1387726E1,3.1634445E1,2.0802368E1,5.3892603E0,4.7364693E0,2.4820343E1,1.1200218E1,1.7025362E1,2.2919647E1,1.7064209E1,3.1924473E1,3.3505016E1,2.6247574E1,1.2346924E1,7.4566956E0,4.068929E0,1.0314217E0,4.494293E0,5.8197937E0,0E0,0E0,0E0,0E0,0E0,0E0,0E0,0E0,0E0,0E0,0E0,0E0,0E0,0E0,0E0,0E0,0E0,0E0,0E0,0E0,0E0,0E0,0E0,0E0,0E0,0E0,0E0,0E0,0E0,0E0,0E0,0E0],"parents":[2147483647,0,0,1,1,2,2,3,3,4,4,5,5,6,6,7,7,8,8,9,9,10,10,11,11,12,12,13,13,14,14,15,15,16,16,17,17,18,18,19,19,20,20,21,21,22,22,23,23,24,24,25,25,26,26,27,27,28,28,29,29,30,30],"right_children":[2,4,6,8,10,12,14,16,18,20,22,24,26,28,30,32,34,36,38,40,42,44,46,48,50,52,54,56,58,60,62,-1,-1,-1,-1,-1,-1,-1,-1,-1,-1,-1,-1,-1,-1,-1,-1,-1,-1,-1,-1,-1,-1,-1,-1,-1,-1,-1,-1,-1,-1,-1,-1],"split_conditions":[5.5E-1,-9E0,6.1E1,2E0,-1.5E1,1.8E0,1E0,3E1,-1.75E2,1E0,-7.5E-1,0E0,2.8E0,2.8E0,9.3E1,4E0,-5E-1,8E1,2E1,-9.5E-1,-4.6E1,1.5E-1,-5E-2,1E0,-1E-1,2.49E2,1.36E2,8E0,8.1E1,2.2E0,1.22E2,4.61528E-2,9.932598E-3,-1.7900703E-2,-8.347551E-3,1.9039711E-2,4.212932E-2,2.8455854E-4,9.836529E-3,-1.9272937E-2,-5.7480164E-4,-2.5815353E-2,-1.6327351E-2,-7.6046125E-3,-1.7413396E-2,2.3297765E-3,-7.1304566E-3,1.20397275E-2,-1.123714E-2,1.587238E-2,5.315925E-3,2.5418881E-2,6.5027545E-3,3.3044957E-3,4.469115E-2,3.829406E-2,4.080481E-3,3.3341076E-2,5.964155E-2,3.1440135E-2,4.6399094E-2,4.730836E-2,6.3638866E-2],"split_indices":[19,17,16,9,16,19,9,12,17,13,19,16,19,3,16,12,19,16,16,19,16,18,18,13,18,9,8,12,16,5,16,0,0,0,0,0,0,0,0,0,0,0,0,0,0,0,0,0,0,0,0,0,0,0,0,0,0,0,0,0,0,0,0],"split_type":[0,0,0,0,0,0,0,0,0,0,0,0,0,0,0,0,0,0,0,0,0,0,0,0,0,0,0,0,0,0,0,0,0,0,0,0,0,0,0,0,0,0,0,0,0,0,0,0,0,0,0,0,0,0,0,0,0,0,0,0,0,0,0],"sum_hessian":[1.6086558E4,1.1234045E4,4.852513E3,2.5501436E3,8.683901E3,4.0735847E3,7.7892865E2,6.264993E2,1.9236443E3,3.1468623E3,5.5370386E3,3.2633506E3,8.102342E2,1.907905E2,5.881381E2,9.457248E1,5.319268E2,6.9181134E2,1.231833E3,5.829979E2,2.5638645E3,1.9226605E3,3.6143782E3,8.020387E2,2.4613118E3,5.5012915E2,2.6010504E2,1.481946E2,4.25959E1,3.1788705E2,2.7025107E2,1.0894511E1,8.367796E1,2.3322249E2,2.9870435E2,5.4298114E2,1.4883015E2,5.7657996E2,6.5525305E2,1.7202318E2,4.1097476E2,1.2890756E3,1.2747888E3,6.9894135E2,1.2237191E3,1.5970337E3,2.0173445E3,2.0794514E2,5.9409357E2,1.4826083E3,9.787036E2,4.419649E2,1.0816423E2,1.1553683E1,2.4855135E2,8.298821E0,1.3989577E2,9.379607E0,3.3216297E1,2.4717091E2,7.0716156E1,1.6162097E2,1.086301E2],"tree_param":{"num_deleted":"0","num_feature":"20","num_nodes":"63","size_leaf_vector":"1"}},{"base_weights":[3.5482916E-4,3.2810736E-2,-2.5315005E-1,5.2341636E-2,-1.0299133E-1,-4.6319038E-1,-2.029275E-1,-7.44573E-2,7.7103734E-2,-6.824678E-2,-3.563266E-1,-2.717708E-1,-5.2180684E-1,-2.3243046E-1,3.7860237E-2,7.0140615E-2,-1.510133E-1,1.4525108E-1,2.2688854E-2,-5.2426018E-2,-4.4902503E-1,-3.701838E-1,4.2028453E-2,3.1010626E-2,-2.9372358E-1,6.5956175E-2,-5.402608E-1,-1.953738E-1,-4.136781E-1,3.7766945E-1,-6.4688995E-2,5.2892207E-3,-1.4416054E-2,-1.6865605E-2,-3.7970764E-3,-7.1511823E-3,7.7072317E-3,8.510544E-3,3.2069304E-4,-7.473679E-3,-7.2416436E-4,-2.9156014E-2,-1.5521526E-2,-2.9331943E-2,-1.5940502E-2,-1.7300783E-2,-5.0697825E-5,4.7548722E-2,-1.8315803E-2,-1.5550821E-2,-2.7849412E-2,-4.445663E-3,-1.29896505E-2,-2.1292916E-2,1.258338E-2,5.363809E-2,9.45223E-3,-2.5881527E-2,1.8441594E-4],"categories":[],"categories_nodes":[],"categories_segments":[],"categories_sizes":[],"default_left":[0,0,0,0,0,0,0,0,0,0,0,0,0,0,0,0,0,0,0,0,0,0,0,0,0,0,0,0,0,0,0,0,0,0,0,0,0,0,0,0,0,0,0,0,0,0,0,0,0,0,0,0,0,0,0,0,0,0,0],"id":10,"left_children":[1,3,5,7,9,11,13,15,17,19,21,23,25,27,29,31,33,35,37,39,41,43,-1,-1,45,47,49,51,53,55,57,-1,-1,-1,-1,-1,-1,-1,-1,-1,-1,-1,-1,-1,-1,-1,-1,-1,-1,-1,-1,-1,-1,-1,-1,-1,-1,-1,-1],"loss_changes":[1.1442959E2,3.270679E1,1.6557259E1,3.385198E1,1.362381E1,3.2671738E0,9.071178E0,1.9512352E1,3.3441277E1,8.198259E0,3.408905E0,1.6177387E0,2.546711E0,7.5529213E0,4.9066606E0,7.831135E0,1.6088493E1,1.0287567E1,1.204182E1,4.8270445E0,8.2834244E-1,1.8738613E0,0E0,0E0,1.1052313E0,3.3854218E0,6.8792725E-1,6.461521E0,1.6634521E0,4.07481E0,3.3615837E0,0E0,0E0,0E0,0E0,0E0,0E0,0E0,0E0,0E0,0E0,0E0,0E0,0E0,0E0,0E0,0E0,0E0,0E0,0E0,0E0,0E0,0E0,0E0,0E0,0E0,0E0,0E0,0E0],"parents":[2147483647,0,0,1,1,2,2,3,3,4,4,5,5,6,6,7,7,8,8,9,9,10,10,11,11,12,12,13,13,14,14,15,15,16,16,17,17,18,18,19,19,20,20,21,21,24,24,25,25,26,26,27,27,28,28,29,29,30,30],"right_children":[2,4,6,8,10,12,14,16,18,20,22,24,26,28,30,32,34,36,38,40,42,44,-1,-1,46,48,50,52,54,56,58,-1,-1,-1,-1,-1,-1,-1,-1,-1,-1,-1,-1,-1,-1,-1,-1,-1,-1,-1,-1,-1,-1,-1,-1,-1,-1,-1,-1],"split_conditions":[2.5E0,2.25E0,-2.6E0,-3.9E1,2.85E0,2.6666668E-1,2E0,1.9E1,1.5E2,1.21E2,2.6666667E0,3.1E1,1.22E2,1.3E0,-3.7E1,1.25E0,-7.7E1,-5.34E2,5E-1,1E0,1.6666666E0,-2.55E0,4.2028453E-2,3.1010626E-2,2E-2,-5.94E0,3.5E0,2E0,1.6666666E0,1.6E1,-9.1E1,5.2892207E-3,-1.4416054E-2,-1.6865605E-2,-3.7970764E-3,-7.1511823E-3,7.7072317E-3,8.510544E-3,3.2069304E-4,-7.473679E-3,-7.2416436E-4,-2.9156014E-2,-1.5521526E-2,-2.9331943E-2,-1.5940502E-2,-1.7300783E-2,-5.0697825E-5,4.7548722E-2,-1.8315803E-2,-1.5550821E-2,-2.7849412E-2,-4.445663E-3,-1.29896505E-2,-2.1292916E-2,1.258338E-2,5.363809E-2,9.45223E-3,-2.5881527E-2,1.8441594E-4],"split_indices":[6,3,19,16,19,18,14,13,8,16,2,8,12,18,17,18,16,17,6,0,7,18,0,0,11,15,6,1,7,16,16,0,0,0,0,0,0,0,0,0,0,0,0,0,0,0,0,0,0,0,0,0,0,0,0,0,0,0,0],"split_type":[0,0,0,0,0,0,0,0,0,0,0,0,0,0,0,0,0,0,0,0,0,0,0,0,0,0,0,0,0,0,0,0,0,0,0,0,0,0,0,0,0,0,0,0,0,0,0,0,0,0,0,0,0,0,0,0,0,0,0],"sum_hessian":[1.3905785E4,1.2328281E4,1.5775035E3,1.0778714E4,1.5495677E3,3.028218E2,1.2746818E3,1.7607025E3,9.018011E3,1.3637948E3,1.8577298E2,7.231248E1,2.3050932E2,1.1355778E3,1.3910403E2,6.095246E2,1.151178E3,4.0030535E3,5.0149575E3,1.3104839E3,5.331094E1,1.843296E2,1.4433808E0,1.0823498E0,7.1230125E1,6.9386106E0,2.2357071E2,9.4454126E2,1.9103653E2,3.162569E1,1.0747834E2,5.5503894E2,5.4485653E1,3.2964203E2,8.2153595E2,1.19350555E2,3.8837031E3,4.9735013E2,4.5176074E3,3.675213E2,9.429626E2,2.546512E1,2.7845821E1,3.335875E1,1.5097086E2,6.0279236E1,1.09508915E1,1.8831582E0,5.0554523E0,1.653653E1,2.0703418E2,3.5697583E2,5.875654E2,1.8795564E2,3.0808818E0,5.749864E0,2.5875826E1,1.3235331E1,9.424301E1],"tree_param":{"num_deleted":"0","num_feature":"20","num_nodes":"59","size_leaf_vector":"1"}},{"base_weights":[-7.544831E-5,1.6582616E-1,-2.0739807E-1,2.477937E-1,-1.2175087E-1,-1.0779282E-1,-4.5179045E-1,5.101047E-1,1.7178048E-1,2.0674817E-1,-2.390968E-1,-2.0137106E-1,7.626826E-2,-1.6513816E-1,-5.1231754E-1,7.309447E-1,4.4533274E-1,3.5577962E-1,9.791923E-2,-3.3371657E-2,3.3916378E-1,-1.4329217E-1,-4.7948107E-1,-2.8178257E-1,-3.0682534E-2,3.0388078E-1,-7.0727594E-2,-5.0720143E-1,-3.316544E-2,-4.0538582E-1,-6.8113714E-1,2.9443115E-2,3.9433893E-2,3.200829E-2,1.8687684E-2,1.9847162E-3,2.197646E-2,2.4613047E-3,1.3330661E-2,-1.127909E-2,7.7003427E-3,1.3054711E-2,2.9066516E-2,1.1614858E-2,-8.297386E-3,-1.9302046E-2,-2.9288277E-2,-9.165101E-3,-1.9191198E-2,-1.4040861E-6,-1.5986128E-2,2.5530173E-2,1.2007727E-2,-1.1572548E-2,-4.062196E-4,-1.9260151E-2,-3.8379647E-2,6.2867155E-5,-3.6028955E-2,-3.2354467E-2,-1.8125815E-2,-3.0526033E-2,-3.971461E-2],"categories":[],"categories_nodes":[],"categories_segments":[],"categories_sizes":[],"default_left":[0,0,0,0,0,0,0,0,0,0,0,0,0,0,0,0,0,0,0,0,0,0,0,0,0,0,0,0,0,0,0,0,0,0,0,0,0,0,0,0,0,0,0,0,0,0,0,0,0,0,0,0,0,0,0,0,0,0,0,0,0,0,0],"id":11,"left_children":[1,3,5,7,9,11,13,15,17,19,21,23,25,27,29,31,33,35,37,39,41,43,45,47,49,51,53,55,57,59,61,-1,-1,-1,-1,-1,-1,-1,-1,-1,-1,-1,-1,-1,-1,-1,-1,-1,-1,-1,-1,-1,-1,-1,-1,-1,-1,-1,-1,-1,-1,-1,-1],"loss_changes":[6.793267E2,2.586456E2,2.1366489E2,1.7015497E2,9.3882355E1,1.07469376E2,4.4015625E1,2.7107208E1,8.99516E1,2.0398996E1,4.124633E1,5.676129E1,7.039849E1,2.0054028E1,3.760022E1,3.090393E0,2.0476562E1,5.0179443E1,3.8808174E1,8.276115E0,7.6636124E0,1.0965733E1,4.846817E0,2.8182404E1,1.1745899E1,1.0753204E1,1.286577E1,3.6342392E0,7.617844E0,1.3100937E1,6.0046997E0,0E0,0E0,0E0,0E0,0E0,0E0,0E0,0E0,0E0,0E0,0E0,0E0,0E0,0E0,0E0,0E0,0E0,0E0,0E0,0E0,0E0,0E0,0E0,0E0,0E0,0E0,0E0,0E0,0E0,0E0,0E0,0E0],"parents":[2147483647,0,0,1,1,2,2,3,3,4,4,5,5,6,6,7,7,8,8,9,9,10,10,11,11,12,12,13,13,14,14,15,15,16,16,17,17,18,18,19,19,20,20,21,21,22,22,23,23,24,24,25,25,26,26,27,27,28,28,29,29,30,30],"right_children":[2,4,6,8,10,12,14,16,18,20,22,24,26,28,30,32,34,36,38,40,42,44,46,48,50,52,54,56,58,60,62,-1,-1,-1,-1,-1,-1,-1,-1,-1,-1,-1,-1,-1,-1,-1,-1,-1,-1,-1,-1,-1,-1,-1,-1,-1,-1,-1,-1,-1,-1,-1,-1],"split_conditions":[2E-1,1E0,1.5E1,-1.25E0,5E0,1E0,1E0,-2.6E0,-3.1E1,6.7E1,4.2E1,8.3333336E-2,-2.3E1,-7.5E-1,6.1E1,5.3333336E-1,-4.9E1,1E0,8.333333E-1,5E-2,4E0,-1.55E0,6.89E2,8.666667E-1,1.75E0,-6.4E1,1E0,2.6666667E0,4.25E0,1.4E1,9.7E1,2.9443115E-2,3.9433893E-2,3.200829E-2,1.8687684E-2,1.9847162E-3,2.197646E-2,2.4613047E-3,1.3330661E-2,-1.127909E-2,7.7003427E-3,1.3054711E-2,2.9066516E-2,1.1614858E-2,-8.297386E-3,-1.9302046E-2,-2.9288277E-2,-9.165101E-3,-1.9191198E-2,-1.4040861E-6,-1.5986128E-2,2.5530173E-2,1.2007727E-2,-1.1572548E-2,-4.062196E-4,-1.9260151E-2,-3.8379647E-2,6.2867155E-5,-3.6028955E-2,-3.2354467E-2,-1.8125815E-2,-3.0526033E-2,-3.971461E-2],"split_indices":[19,16,16,19,9,13,9,19,16,12,16,18,16,18,16,18,16,13,18,18,1,19,13,19,19,16,0,3,3,12,16,0,0,0,0,0,0,0,0,0,0,0,0,0,0,0,0,0,0,0,0,0,0,0,0,0,0,0,0,0,0,0,0],"split_type":[0,0,0,0,0,0,0,0,0,0,0,0,0,0,0,0,0,0,0,0,0,0,0,0,0,0,0,0,0,0,0,0,0,0,0,0,0,0,0,0,0,0,0,0,0,0,0,0,0,0,0,0,0,0,0,0,0,0,0,0,0,0,0],"sum_hessian":[1.9748652E4,1.0970305E4,8.778347E3,8.537123E3,2.4331821E3,6.237581E3,2.5407651E3,1.916801E3,6.620322E3,6.4021045E2,1.7929717E3,4.1351445E3,2.1024368E3,4.4360583E2,2.0971594E3,4.3236575E2,1.4844352E3,1.8952244E3,4.7250977E3,2.2782504E2,4.123854E2,1.283165E3,5.098066E2,2.8104756E3,1.3246687E3,8.2457477E2,1.277862E3,1.2270933E2,3.208965E2,1.2859985E3,8.1116077E2,1.2816039E2,3.0420538E2,3.9670084E2,1.0877344E3,3.972832E2,1.4979412E3,3.6677124E3,1.0573851E3,1.1236193E2,1.1546311E2,3.1342252E2,9.8962906E1,7.247085E1,1.2106942E3,2.7376123E2,2.3604538E2,1.4316146E3,1.378861E3,1.1985548E3,1.2611392E2,1.9264333E2,6.3193146E2,3.5745593E2,9.204061E2,8.5248215E1,3.7461113E1,3.0654422E2,1.4352274E1,1.9160617E2,1.0943923E3,5.0340012E2,3.0776068E2],"tree_param":{"num_deleted":"0","num_feature":"20","num_nodes":"63","size_leaf_vector":"1"}},{"base_weights":[-3.159591E-4,-1.3266261E-1,3.0182984E-1,1.3445051E-1,-2.1207935E-1,-7.295354E-2,3.8714206E-1,-1.6354656E-1,2.3020175E-1,-3.7521955E-1,-1.3936076E-1,2.831111E-1,-2.1808985E-1,2.9053414E-1,6.963442E-1,2.809727E-1,-2.4413987E-1,1.4790308E-1,5.850988E-1,-1.2180148E-1,-4.4306758E-1,-5.1665694E-2,-2.4711917E-1,-3.6144063E-1,3.839856E-1,-3.7294582E-1,-2.6149152E-2,2.2315472E-1,5.9668005E-1,4.4533384E-1,8.3206165E-1,4.4183064E-2,9.599143E-3,-1.2858882E-2,2.1056728E-2,1.6593179E-2,4.06981E-3,1.7987994E-2,3.5468522E-2,-1.9236302E-2,-9.148068E-4,-2.7196173E-2,-1.889035E-2,4.1171345E-3,-5.4190764E-3,-1.9452302E-2,-9.660288E-3,1.80751E-2,-2.2341741E-2,9.006587E-3,2.7242536E-2,-2.3649013E-2,-1.34875E-2,1.0329794E-2,-6.4878366E-3,1.9323938E-2,8.191835E-3,7.91836E-3,3.7875336E-2,1.6731916E-2,3.1588938E-2,3.6226995E-2,5.4460164E-2],"categories":[],"categories_nodes":[],"categories_segments":[],"categories_sizes":[],"default_left":[0,0,0,0,0,0,0,0,0,0,0,0,0,0,0,0,0,0,0,0,0,0,0,0,0,0,0,0,0,0,0,0,0,0,0,0,0,0,0,0,0,0,0,0,0,0,0,0,0,0,0,0,0,0,0,0,0,0,0,0,0,0,0],"id":12,"left_children":[1,3,5,7,9,11,13,15,17,19,21,23,25,27,29,31,33,35,37,39,41,43,45,47,49,51,53,55,57,59,61,-1,-1,-1,-1,-1,-1,-1,-1,-1,-1,-1,-1,-1,-1,-1,-1,-1,-1,-1,-1,-1,-1,-1,-1,-1,-1,-1,-1,-1,-1,-1,-1],"loss_changes":[6.426692E2,2.3711096E2,1.5655203E2,7.313872E1,1.0215292E2,4.7014297E1,1.18920044E2,2.2408941E1,5.6556778E1,4.56062E1,5.631436E1,1.7273445E1,1.9192232E1,6.2580017E1,3.1946228E1,4.988394E0,4.691641E0,1.9250027E1,9.9583435E0,1.5293121E1,1.357959E1,2.4995243E1,2.038652E1,2.3949676E0,7.3903275E0,3.562729E0,7.0090046E0,2.4092766E1,3.849707E1,6.7038574E0,1.620279E1,0E0,0E0,0E0,0E0,0E0,0E0,0E0,0E0,0E0,0E0,0E0,0E0,0E0,0E0,0E0,0E0,0E0,0E0,0E0,0E0,0E0,0E0,0E0,0E0,0E0,0E0,0E0,0E0,0E0,0E0,0E0,0E0],"parents":[2147483647,0,0,1,1,2,2,3,3,4,4,5,5,6,6,7,7,8,8,9,9,10,10,11,11,12,12,13,13,14,14,15,15,16,16,17,17,18,18,19,19,20,20,21,21,22,22,23,23,24,24,25,25,26,26,27,27,28,28,29,29,30,30],"right_children":[2,4,6,8,10,12,14,16,18,20,22,24,26,28,30,32,34,36,38,40,42,44,46,48,50,52,54,56,58,60,62,-1,-1,-1,-1,-1,-1,-1,-1,-1,-1,-1,-1,-1,-1,-1,-1,-1,-1,-1,-1,-1,-1,-1,-1,-1,-1,-1,-1,-1,-1,-1,-1],"split_conditions":[5.5E-1,-9E0,0E0,2E0,-2.4E1,1E0,1.8E0,3E1,6.2E1,1E0,2.6666668E-1,4.4E1,-2E1,6.2E1,2E0,4E0,2.7E0,1E0,5.95E2,-9.5E-1,-6.2E1,1E0,-1.15E0,-1E1,1.8E0,-4E1,1E0,1E0,1E0,2.45E0,2.9E0,4.4183064E-2,9.599143E-3,-1.2858882E-2,2.1056728E-2,1.6593179E-2,4.06981E-3,1.7987994E-2,3.5468522E-2,-1.9236302E-2,-9.148068E-4,-2.7196173E-2,-1.889035E-2,4.1171345E-3,-5.4190764E-3,-1.9452302E-2,-9.660288E-3,1.80751E-2,-2.2341741E-2,9.006587E-3,2.7242536E-2,-2.3649013E-2,-1.34875E-2,1.0329794E-2,-6.4878366E-3,1.9323938E-2,8.191835E-3,7.91836E-3,3.7875336E-2,1.6731916E-2,3.1588938E-2,3.6226995E-2,5.4460164E-2],"split_indices":[19,17,16,9,16,13,19,12,16,13,18,8,16,16,1,12,18,0,13,19,16,0,19,11,7,16,0,0,9,19,19,0,0,0,0,0,0,0,0,0,0,0,0,0,0,0,0,0,0,0,0,0,0,0,0,0,0,0,0,0,0,0,0],"split_type":[0,0,0,0,0,0,0,0,0,0,0,0,0,0,0,0,0,0,0,0,0,0,0,0,0,0,0,0,0,0,0,0,0,0,0,0,0,0,0,0,0,0,0,0,0,0,0,0,0,0,0,0,0,0,0,0,0,0,0,0,0,0,0],"sum_hessian":[1.6069556E4,1.117515E4,4.894406E3,2.5609304E3,8.61422E3,9.0756146E2,3.9868445E3,6.2259174E2,1.9383386E3,2.6546025E3,5.9596167E3,2.6253372E2,6.450277E2,3.0392063E3,9.476381E2,9.517263E1,5.2741907E2,1.5746117E3,3.63727E2,5.6121454E2,2.0933882E3,3.2865024E3,2.6731145E3,3.5177723E1,2.2735602E2,3.5647998E2,2.8854776E2,2.4923877E3,5.4681866E2,3.3406464E2,6.135735E2,1.10958E1,8.407683E1,5.178833E2,9.535811E0,4.1704904E2,1.1575626E3,1.306739E2,2.3305307E2,1.5775864E2,4.034559E2,8.195281E2,1.27386E3,9.7717584E2,2.3093267E3,7.34178E2,1.9389365E3,3.3746648E0,3.1803059E1,1.0121393E2,1.2614208E2,1.791931E2,1.7728688E2,8.8575935E1,1.9997182E2,6.625719E2,1.8298158E3,1.4731496E2,3.9950372E2,2.1136717E2,1.2269748E2,4.3535205E2,1.7822139E2],"tree_param":{"num_deleted":"0","num_feature":"20","num_nodes":"63","size_leaf_vector":"1"}},{"base_weights":[5.94561E-4,3.179924E-2,-2.4617822E-1,5.0806865E-2,-1.0091604E-1,-4.539013E-1,-1.9731167E-1,-7.0583954E-2,7.433425E-2,-6.730917E-2,-3.4910455E-1,-2.6220077E-1,-5.132657E-1,-5.010377E-3,-2.3357093E-1,6.860517E-2,-1.4499456E-1,1.4100955E-1,2.3102205E-2,-5.1988225E-2,-4.4177523E-1,-3.6301827E-1,4.1107424E-2,3.064934E-2,-2.8428096E-1,7.319251E-2,-5.320536E-1,2.1256101E-1,-1.3989206E-1,-1.9829066E-1,-3.9603755E-1,5.155302E-3,-1.4129159E-2,-1.647926E-2,-3.5634786E-3,-7.1158945E-3,7.480637E-3,2.1507943E-3,-4.822465E-3,-7.3558376E-3,-7.463675E-4,-2.883527E-2,-1.5177056E-2,-2.9051602E-2,-1.5584664E-2,-2.2571763E-2,-9.267542E-3,4.6540648E-2,-1.791376E-2,-2.280677E-2,-2.955379E-2,2.1321035E-3,3.3703834E-2,-1.8412309E-2,-1.3914748E-4,-2.214442E-2,-9.0715205E-3,-2.0404933E-2,1.2409859E-2],"categories":[],"categories_nodes":[],"categories_segments":[],"categories_sizes":[],"default_left":[0,0,0,0,0,0,0,0,0,0,0,0,0,0,0,0,0,0,0,0,0,0,0,0,0,0,0,0,0,0,0,0,0,0,0,0,0,0,0,0,0,0,0,0,0,0,0,0,0,0,0,0,0,0,0,0,0,0,0],"id":13,"left_children":[1,3,5,7,9,11,13,15,17,19,21,23,25,27,29,31,33,35,37,39,41,43,-1,-1,45,47,49,51,53,55,57,-1,-1,-1,-1,-1,-1,-1,-1,-1,-1,-1,-1,-1,-1,-1,-1,-1,-1,-1,-1,-1,-1,-1,-1,-1,-1,-1,-1],"loss_changes":[1.0704904E2,3.113675E1,1.5751068E1,3.083776E1,1.2874831E1,3.238861E0,8.820084E0,1.8167917E1,3.0888485E1,7.798073E0,3.300026E0,1.5682287E0,2.5213165E0,5.949543E0,6.022423E0,7.437357E0,1.5528229E1,9.599022E0,1.2181921E1,4.6189904E0,8.2188034E-1,1.8634167E0,0E0,0E0,1.091145E0,3.2466347E0,7.0910645E-1,6.0562468E0,3.916635E0,3.5342903E0,1.5690517E0,0E0,0E0,0E0,0E0,0E0,0E0,0E0,0E0,0E0,0E0,0E0,0E0,0E0,0E0,0E0,0E0,0E0,0E0,0E0,0E0,0E0,0E0,0E0,0E0,0E0,0E0,0E0,0E0],"parents":[2147483647,0,0,1,1,2,2,3,3,4,4,5,5,6,6,7,7,8,8,9,9,10,10,11,11,12,12,13,13,14,14,15,15,16,16,17,17,18,18,19,19,20,20,21,21,24,24,25,25,26,26,27,27,28,28,29,29,30,30],"right_children":[2,4,6,8,10,12,14,16,18,20,22,24,26,28,30,32,34,36,38,40,42,44,-1,-1,46,48,50,52,54,56,58,-1,-1,-1,-1,-1,-1,-1,-1,-1,-1,-1,-1,-1,-1,-1,-1,-1,-1,-1,-1,-1,-1,-1,-1,-1,-1,-1,-1],"split_conditions":[2.5E0,2.25E0,-2.6E0,-3.9E1,2.85E0,2.6666668E-1,1.37E2,1.9E1,1.44E2,1.21E2,2.6666667E0,3.1E1,1.22E2,2E0,1.3E0,1.25E0,-7.7E1,-5.34E2,1.15E0,1E0,1.6666666E0,-2.55E0,4.1107424E-2,3.064934E-2,-1.5E1,-5.94E0,4.75E0,1.3E2,6.666667E-1,-8.5E1,1.6666666E0,5.155302E-3,-1.4129159E-2,-1.647926E-2,-3.5634786E-3,-7.1158945E-3,7.480637E-3,2.1507943E-3,-4.822465E-3,-7.3558376E-3,-7.463675E-4,-2.883527E-2,-1.5177056E-2,-2.9051602E-2,-1.5584664E-2,-2.2571763E-2,-9.267542E-3,4.6540648E-2,-1.791376E-2,-2.280677E-2,-2.955379E-2,2.1321035E-3,3.3703834E-2,-1.8412309E-2,-1.3914748E-4,-2.214442E-2,-9.0715205E-3,-2.0404933E-2,1.2409859E-2],"split_indices":[6,3,19,16,19,18,12,13,8,16,2,8,12,1,18,18,16,17,18,0,7,18,0,0,16,15,6,8,5,16,7,0,0,0,0,0,0,0,0,0,0,0,0,0,0,0,0,0,0,0,0,0,0,0,0,0,0,0,0],"split_type":[0,0,0,0,0,0,0,0,0,0,0,0,0,0,0,0,0,0,0,0,0,0,0,0,0,0,0,0,0,0,0,0,0,0,0,0,0,0,0,0,0,0,0,0,0,0,0,0,0,0,0,0,0,0,0,0,0,0,0],"sum_hessian":[1.3899617E4,1.2340073E4,1.5595441E3,1.0794666E4,1.5454065E3,2.9543088E2,1.2641132E3,1.7521829E3,9.042483E3,1.3622212E3,1.8318532E2,7.113558E1,2.242953E2,2.007218E2,1.0633914E3,6.1042584E2,1.1417571E3,3.928297E3,5.114186E3,1.3097719E3,5.2449326E1,1.817167E2,1.4686159E0,1.0919578E0,7.0043625E1,6.8726153E0,2.1742268E2,7.6594635E1,1.2412717E2,8.754947E2,1.8789664E2,5.564649E2,5.3960907E1,3.2487454E2,8.168825E2,1.1530878E2,3.8129885E3,4.384501E3,7.296854E2,3.663776E2,9.433943E2,2.49367E1,2.7512627E1,3.266111E1,1.4905559E2,2.4717417E1,4.532621E1,1.912954E0,4.9596615E0,9.89172E1,1.1850549E2,5.6781464E1,1.981317E1,4.593575E1,7.819142E1,5.4827297E1,8.206674E2,1.8480336E2,3.0932817E0],"tree_param":{"num_deleted":"0","num_feature":"20","num_nodes":"59","size_leaf_vector":"1"}},{"base_weights":[-1.6158083E-4,2.2484736E-1,-1.4157659E-1,5.024942E-1,1.4729807E-1,-4.577598E-2,-3.8778356E-1,3.1171602E-1,5.8607024E-1,3.5955837E-1,6.103195E-2,-1.3759468E-1,1.1493141E-1,-7.9235025E-2,-4.5953855E-1,2.625402E-1,7.027573E-1,6.9112897E-1,4.5201385E-1,1.7207952E-1,4.2658052E-1,1.4687766E-1,-9.624406E-2,-5.509438E-2,-3.0822033E-1,3.218068E-1,-3.9429124E-2,1.6001232E-2,-4.5033285E-1,-2.9807776E-1,-5.7584316E-1,1.08120395E-2,3.510099E-2,3.809665E-2,-2.9505899E-3,3.8328063E-2,2.8745553E-2,7.4717277E-3,2.5083665E-2,3.860473E-2,6.808776E-3,1.6126154E-2,2.5112066E-2,-2.9910094E-5,1.1475301E-2,5.354471E-3,-1.06527535E-2,-6.9358908E-3,1.3909008E-3,-1.8467141E-2,-5.6681326E-3,2.986005E-2,1.3715622E-2,-9.297173E-3,1.2077204E-3,-1.4151491E-2,4.3395897E-3,-3.3887107E-2,-1.460633E-2,-2.491763E-2,-1.2630045E-2,-2.5970077E-2,-3.795867E-2],"categories":[],"categories_nodes":[],"categories_segments":[],"categories_sizes":[],"default_left":[0,0,0,0,0,0,0,0,0,0,0,0,0,0,0,0,0,0,0,0,0,0,0,0,0,0,0,0,0,0,0,0,0,0,0,0,0,0,0,0,0,0,0,0,0,0,0,0,0,0,0,0,0,0,0,0,0,0,0,0,0,0,0],"id":14,"left_children":[1,3,5,7,9,11,13,15,17,19,21,23,25,27,29,31,33,35,37,39,41,43,45,47,49,51,53,55,57,59,61,-1,-1,-1,-1,-1,-1,-1,-1,-1,-1,-1,-1,-1,-1,-1,-1,-1,-1,-1,-1,-1,-1,-1,-1,-1,-1,-1,-1,-1,-1,-1,-1],"loss_changes":[6.27645E2,1.6383429E2,2.8567767E2,2.6311005E1,1.0896318E2,1.286993E2,7.507846E1,9.590233E0,1.5944611E1,2.1535583E1,5.7168434E1,7.811354E1,1.0128725E2,2.2673563E1,5.1514465E1,9.068243E0,2.577736E0,5.2160034E0,7.5890274E0,9.687557E0,9.806747E0,3.337499E1,3.5539368E1,2.595266E1,2.1501114E1,1.756305E1,1.6932695E1,1.0848742E1,4.5154953E0,1.0389511E1,1.614972E1,0E0,0E0,0E0,0E0,0E0,0E0,0E0,0E0,0E0,0E0,0E0,0E0,0E0,0E0,0E0,0E0,0E0,0E0,0E0,0E0,0E0,0E0,0E0,0E0,0E0,0E0,0E0,0E0,0E0,0E0,0E0,0E0],"parents":[2147483647,0,0,1,1,2,2,3,3,4,4,5,5,6,6,7,7,8,8,9,9,10,10,11,11,12,12,13,13,14,14,15,15,16,16,17,17,18,18,19,19,20,20,21,21,22,22,23,23,24,24,25,25,26,26,27,27,28,28,29,29,30,30],"right_children":[2,4,6,8,10,12,14,16,18,20,22,24,26,28,30,32,34,36,38,40,42,44,46,48,50,52,54,56,58,60,62,-1,-1,-1,-1,-1,-1,-1,-1,-1,-1,-1,-1,-1,-1,-1,-1,-1,-1,-1,-1,-1,-1,-1,-1,-1,-1,-1,-1,-1,-1,-1,-1],"split_conditions":[-2E-1,-1.4E0,1.3E1,2E0,-2.1E1,1E0,1E0,2.94E2,1E0,1E0,2E1,8.666667E-1,-2.3E1,1.05E0,3.9E1,2.05E0,4E0,-2E0,9.7E1,4E0,2.5E-1,-5E-2,-2E0,-5E-2,8.3333336E-2,-7.7E1,1E0,2.9E1,5E-1,1.6E1,9.3E1,1.08120395E-2,3.510099E-2,3.809665E-2,-2.9505899E-3,3.8328063E-2,2.8745553E-2,7.4717277E-3,2.5083665E-2,3.860473E-2,6.808776E-3,1.6126154E-2,2.5112066E-2,-2.9910094E-5,1.1475301E-2,5.354471E-3,-1.06527535E-2,-6.9358908E-3,1.3909008E-3,-1.8467141E-2,-5.6681326E-3,2.986005E-2,1.3715622E-2,-9.297173E-3,1.2077204E-3,-1.4151491E-2,4.3395897E-3,-3.3887107E-2,-1.460633E-2,-2.491763E-2,-1.2630045E-2,-2.5970077E-2,-3.795867E-2],"split_indices":[19,19,16,1,16,13,9,17,5,0,9,19,16,19,16,18,14,19,12,8,18,18,16,18,18,16,0,12,4,12,16,0,0,0,0,0,0,0,0,0,0,0,0,0,0,0,0,0,0,0,0,0,0,0,0,0,0,0,0,0,0,0,0],"split_type":[0,0,0,0,0,0,0,0,0,0,0,0,0,0,0,0,0,0,0,0,0,0,0,0,0,0,0,0,0,0,0,0,0,0,0,0,0,0,0,0,0,0,0,0,0,0,0,0,0,0,0,0,0,0,0,0,0,0,0,0,0,0,0],"sum_hessian":[1.972308E4,7.6115547E3,1.2111524E4,1.6606199E3,5.950935E3,8.719788E3,3.3917363E3,5.0731235E2,1.1533075E3,1.718745E3,4.23219E3,5.549357E3,3.1704312E3,6.4034393E2,2.7513923E3,4.5212613E2,5.5186222E1,6.442551E2,5.0905237E2,4.5356635E2,1.2651787E3,2.7378562E3,1.4943337E3,3.7415693E3,1.8077877E3,1.3543005E3,1.8161306E3,5.103323E2,1.3001166E2,1.1535416E3,1.5978507E3,4.10384E2,4.1742123E1,5.1208065E1,3.9781592E0,3.872871E2,2.5696802E2,7.2332565E1,4.3671982E2,2.4450687E1,4.2911563E2,5.3485175E2,7.303269E2,9.834961E2,1.7543601E3,5.452674E2,9.4906635E2,1.8624622E3,1.8791073E3,1.3754459E3,4.3234183E2,1.9750446E2,1.1567961E3,5.490472E2,1.2670834E3,9.711296E1,4.1321936E2,5.199252E1,7.8019135E1,2.1162244E2,9.4191925E2,1.2246521E3,3.731986E2],"tree_param":{"num_deleted":"0","num_feature":"20","num_nodes":"63","size_leaf_vector":"1"}},{"base_weights":[-4.307085E-4,-1.2840705E-1,2.8801373E-1,1.2824778E-1,-2.0561405E-1,-7.0400685E-2,3.6851987E-1,-1.584279E-1,2.1918143E-1,-3.4828237E-1,-1.259409E-1,2.7068457E-1,-2.1160138E-1,2.7666357E-1,6.602322E-1,2.7061963E-1,-2.3736167E-1,4.3697202E-1,9.484169E-2,-1.1209232E-1,-4.0301844E-1,-2.6249635E-1,-5.425078E-2,-3.5633492E-1,3.6727968E-1,-3.6366343E-1,-2.5511725E-2,5.6761193E-1,2.1237752E-1,4.224401E-1,7.879999E-1,4.235031E-2,9.23385E-3,-1.2561112E-2,1.9333353E-2,1.7291922E-2,3.8001563E-2,-3.6604124E-5,8.908774E-3,-1.4707304E-2,1.6198071E-3,-2.4855787E-2,-1.5444825E-2,-7.1870186E-3,-1.6559483E-2,2.2644307E-3,-6.69158E-3,1.7442165E-2,-2.204449E-2,8.59794E-3,2.6011745E-2,-2.3173591E-2,-1.3064325E-2,-7.6096742E-3,7.917796E-3,1.0288129E-2,3.3339094E-2,1.5714675E-2,5.333843E-3,1.5848316E-2,2.9970368E-2,3.433473E-2,5.146513E-2],"categories":[],"categories_nodes":[],"categories_segments":[],"categories_sizes":[],"default_left":[0,0,0,0,0,0,0,0,0,0,0,0,0,0,0,0,0,0,0,0,0,0,0,0,0,0,0,0,0,0,0,0,0,0,0,0,0,0,0,0,0,0,0,0,0,0,0,0,0,0,0,0,0,0,0,0,0,0,0,0,0,0,0],"id":15,"left_children":[1,3,5,7,9,11,13,15,17,19,21,23,25,27,29,31,33,35,37,39,41,43,45,47,49,51,53,55,57,59,61,-1,-1,-1,-1,-1,-1,-1,-1,-1,-1,-1,-1,-1,-1,-1,-1,-1,-1,-1,-1,-1,-1,-1,-1,-1,-1,-1,-1,-1,-1,-1,-1],"loss_changes":[5.925315E2,2.2034715E2,1.4236746E2,6.707854E1,9.711694E1,4.3674976E1,1.0776111E2,2.105848E1,5.2843704E1,3.954596E1,5.3695236E1,1.6216927E1,1.813103E1,5.7214737E1,2.8955383E1,4.6383853E0,4.6304607E0,2.0625046E1,9.911595E0,1.5202038E1,2.186261E1,1.535791E1,2.8514366E1,2.2980332E0,6.80068E0,3.4829369E0,6.763909E0,1.9748047E1,2.703012E1,6.1391525E0,1.459375E1,0E0,0E0,0E0,0E0,0E0,0E0,0E0,0E0,0E0,0E0,0E0,0E0,0E0,0E0,0E0,0E0,0E0,0E0,0E0,0E0,0E0,0E0,0E0,0E0,0E0,0E0,0E0,0E0,0E0,0E0,0E0,0E0],"parents":[2147483647,0,0,1,1,2,2,3,3,4,4,5,5,6,6,7,7,8,8,9,9,10,10,11,11,12,12,13,13,14,14,15,15,16,16,17,17,18,18,19,19,20,20,21,21,22,22,23,23,24,24,25,25,26,26,27,27,28,28,29,29,30,30],"right_children":[2,4,6,8,10,12,14,16,18,20,22,24,26,28,30,32,34,36,38,40,42,44,46,48,50,52,54,56,58,60,62,-1,-1,-1,-1,-1,-1,-1,-1,-1,-1,-1,-1,-1,-1,-1,-1,-1,-1,-1,-1,-1,-1,-1,-1,-1,-1,-1,-1,-1,-1,-1,-1],"split_conditions":[5.5E-1,-9E0,0E0,2E0,-1.5E1,1E0,1.8E0,3E1,-1.75E2,1E0,-7.5E-1,4.4E1,-2E1,-2.44E2,2E0,4E0,1.45674E3,8E1,2E1,-4.1666666E-1,-4.6E1,1.5E-1,-5E-2,-1E1,1.8E0,-4E1,6.4E2,1E0,-2.5E-1,2.45E0,2.9E0,4.235031E-2,9.23385E-3,-1.2561112E-2,1.9333353E-2,1.7291922E-2,3.8001563E-2,-3.6604124E-5,8.908774E-3,-1.4707304E-2,1.6198071E-3,-2.4855787E-2,-1.5444825E-2,-7.1870186E-3,-1.6559483E-2,2.2644307E-3,-6.69158E-3,1.7442165E-2,-2.204449E-2,8.59794E-3,2.6011745E-2,-2.3173591E-2,-1.3064325E-2,-7.6096742E-3,7.917796E-3,1.0288129E-2,3.3339094E-2,1.5714675E-2,5.333843E-3,1.5848316E-2,2.9970368E-2,3.433473E-2,5.146513E-2],"split_indices":[19,17,16,9,16,13,19,12,17,13,19,8,16,17,1,12,13,16,16,19,16,18,18,11,7,16,13,9,18,19,19,0,0,0,0,0,0,0,0,0,0,0,0,0,0,0,0,0,0,0,0,0,0,0,0,0,0,0,0,0,0,0,0],"split_type":[0,0,0,0,0,0,0,0,0,0,0,0,0,0,0,0,0,0,0,0,0,0,0,0,0,0,0,0,0,0,0,0,0,0,0,0,0,0,0,0,0,0,0,0,0,0,0,0,0,0,0,0,0,0,0,0,0,0,0,0,0,0,0],"sum_hessian":[1.6049646E4,1.111758E4,4.932067E3,2.570836E3,8.546744E3,9.0465533E2,4.0274114E3,6.189148E2,1.951921E3,3.0614055E3,5.4853384E3,2.645909E2,6.4006445E2,3.064416E3,9.629953E2,9.5794075E1,5.231207E2,7.08469E2,1.243452E3,5.7655945E2,2.4848462E3,1.8874532E3,3.5978855E3,3.4961224E1,2.296297E2,3.5171136E2,2.883531E2,5.531442E2,2.5112717E3,3.3808405E2,6.2491125E2,1.1280991E1,8.4513084E1,5.123384E2,1.0782338E1,5.542016E2,1.5426736E2,5.796522E2,6.6379987E2,2.5465782E2,3.2190164E2,1.2404448E3,1.2444014E3,6.9281586E2,1.1946373E3,1.5986859E3,1.9991995E3,3.40856E0,3.1552666E1,1.0178123E2,1.27848465E2,1.763038E2,1.7540756E2,1.708278E2,1.17525276E2,1.1964841E2,4.3349582E2,1.2775204E3,1.2337515E3,2.1357993E2,1.2450411E2,4.4284073E2,1.8207054E2],"tree_param":{"num_deleted":"0","num_feature":"20","num_nodes":"63","size_leaf_vector":"1"}},{"base_weights":[8.6299767E-4,3.0833712E-2,-2.3914053E-1,4.9292687E-2,-9.862318E-2,-4.4523567E-1,-1.9136104E-1,-6.705659E-2,7.168481E-2,-6.6234455E-2,-3.4120256E-1,-2.521099E-1,-5.0556153E-1,-2.2067417E-1,4.5576412E-2,6.801141E-2,-1.3981815E-1,1.3581628E-1,2.2217521E-2,-5.121556E-2,-4.3696004E-1,-3.5519084E-1,4.028488E-2,3.024417E-2,-2.7431267E-1,7.879412E-2,-5.246508E-1,-1.8471375E-1,-3.994317E-1,-5.052992E-1,1.0509845E-1,5.06642E-3,-1.3782929E-2,-1.6099205E-2,-3.3900577E-3,-7.035197E-3,7.207684E-3,2.0704218E-3,-4.679575E-3,-4.718804E-3,1.393214E-3,-2.8614525E-2,-1.4965293E-2,8.699129E-3,-1.8706026E-2,-1.6394807E-2,1.057811E-3,4.5285136E-2,-1.7523779E-2,-2.2384882E-2,-2.9239867E-2,-4.0605417E-3,-1.23974485E-2,-2.0425605E-2,2.413839E-2,-2.8679524E-2,4.5792134E-3,1.9459061E-2,9.483169E-4],"categories":[],"categories_nodes":[],"categories_segments":[],"categories_sizes":[],"default_left":[0,0,0,0,0,0,0,0,0,0,0,0,0,0,0,0,0,0,0,0,0,0,0,0,0,0,0,0,0,0,0,0,0,0,0,0,0,0,0,0,0,0,0,0,0,0,0,0,0,0,0,0,0,0,0,0,0,0,0],"id":16,"left_children":[1,3,5,7,9,11,13,15,17,19,21,23,25,27,29,31,33,35,37,39,41,43,-1,-1,45,47,49,51,53,55,57,-1,-1,-1,-1,-1,-1,-1,-1,-1,-1,-1,-1,-1,-1,-1,-1,-1,-1,-1,-1,-1,-1,-1,-1,-1,-1,-1,-1],"loss_changes":[9.994469E1,2.952186E1,1.510379E1,2.8171473E1,1.2091015E1,3.2458496E0,8.719135E0,1.7162853E1,2.8760796E1,7.557883E0,3.1959019E0,1.5151944E0,2.4913254E0,7.100437E0,4.606954E0,7.032384E0,1.4863789E1,9.122337E0,1.138262E1,4.472292E0,8.136902E-1,1.8669319E0,0E0,0E0,1.1121569E0,3.092289E0,7.231941E-1,6.0732975E0,1.6876392E0,6.115854E-1,3.0797622E0,0E0,0E0,0E0,0E0,0E0,0E0,0E0,0E0,0E0,0E0,0E0,0E0,0E0,0E0,0E0,0E0,0E0,0E0,0E0,0E0,0E0,0E0,0E0,0E0,0E0,0E0,0E0,0E0],"parents":[2147483647,0,0,1,1,2,2,3,3,4,4,5,5,6,6,7,7,8,8,9,9,10,10,11,11,12,12,13,13,14,14,15,15,16,16,17,17,18,18,19,19,20,20,21,21,24,24,25,25,26,26,27,27,28,28,29,29,30,30],"right_children":[2,4,6,8,10,12,14,16,18,20,22,24,26,28,30,32,34,36,38,40,42,44,-1,-1,46,48,50,52,54,56,58,-1,-1,-1,-1,-1,-1,-1,-1,-1,-1,-1,-1,-1,-1,-1,-1,-1,-1,-1,-1,-1,-1,-1,-1,-1,-1,-1,-1],"split_conditions":[2.5E0,2.25E0,-2.6E0,-3.9E1,2.85E0,2.6666668E-1,2E0,1.9E1,1.44E2,1.21E2,2.6666667E0,3.1E1,1.22E2,1.3E0,-9.1E1,1.25E0,-7.7E1,-5.34E2,1.15E0,2.3E1,1.6666666E0,1.34E2,4.028488E-2,3.024417E-2,2E-2,-5.94E0,4.75E0,2E0,4.5E1,8E1,-5.3E1,5.06642E-3,-1.3782929E-2,-1.6099205E-2,-3.3900577E-3,-7.035197E-3,7.207684E-3,2.0704218E-3,-4.679575E-3,-4.718804E-3,1.393214E-3,-2.8614525E-2,-1.4965293E-2,8.699129E-3,-1.8706026E-2,-1.6394807E-2,1.057811E-3,4.5285136E-2,-1.7523779E-2,-2.2384882E-2,-2.9239867E-2,-4.0605417E-3,-1.23974485E-2,-2.0425605E-2,2.413839E-2,-2.8679524E-2,4.5792134E-3,1.9459061E-2,9.483169E-4],"split_indices":[6,3,19,16,19,18,14,13,8,16,2,8,12,18,16,18,16,17,18,9,7,8,0,0,11,15,6,1,11,8,17,0,0,0,0,0,0,0,0,0,0,0,0,0,0,0,0,0,0,0,0,0,0,0,0,0,0,0,0],"split_type":[0,0,0,0,0,0,0,0,0,0,0,0,0,0,0,0,0,0,0,0,0,0,0,0,0,0,0,0,0,0,0,0,0,0,0,0,0,0,0,0,0,0,0,0,0,0,0,0,0,0,0,0,0,0,0,0,0,0,0],"sum_hessian":[1.389254E4,1.2351059E4,1.541481E3,1.0810266E4,1.5407931E3,2.8854288E2,1.2529381E3,1.7443972E3,9.065868E3,1.3604249E3,1.8036824E2,6.991089E1,2.18632E2,1.1150557E3,1.378824E2,6.1074E2,1.1336572E3,3.947029E3,5.1188394E3,1.3085508E3,5.1874073E1,1.7887685E2,1.4913881E0,1.1027539E0,6.8808136E1,6.817244E0,2.1181476E2,9.3000183E2,1.8505388E2,1.2715094E1,1.25167305E2,5.574074E2,5.3332542E1,3.2021277E2,8.1344446E2,1.1505986E2,3.8319692E3,4.391722E3,7.271174E2,8.4640375E2,4.6214706E2,2.4565662E1,2.730841E1,5.8949237E0,1.7298192E2,5.8152412E1,1.0655721E1,1.9503628E0,4.8668814E0,9.662864E1,1.1518612E2,3.5356827E2,5.764336E2,1.8370001E2,1.3538623E0,1.1444695E1,1.2703977E0,2.8302143E1,9.686516E1],"tree_param":{"num_deleted":"0","num_feature":"20","num_nodes":"59","size_leaf_vector":"1"}},{"base_weights":[-2.5777947E-4,1.5352699E-1,-1.927608E-1,4.4128138E-1,8.3629064E-2,-1.00209944E-1,-4.2127353E-1,6.7584205E-1,3.7732908E-1,2.995961E-1,2.4746691E-3,-1.8677878E-1,6.985043E-2,-1.5368867E-1,-4.7814158E-1,5.352739E-1,7.3452777E-1,5.983429E-1,3.0939487E-1,4.2690318E-2,3.5291782E-1,9.679362E-2,-1.4603433E-1,-2.6215497E-1,-2.7211254E-2,2.7915153E-1,-6.515789E-2,-4.8274884E-1,-2.7399583E-2,-3.787595E-1,-6.368371E-1,3.537793E-2,2.1502988E-2,1.0960726E-2,3.7517752E-2,2.0385375E-2,3.326543E-2,7.95442E-3,1.9383634E-2,-1.8966403E-3,1.878632E-2,3.0582706E-2,1.4594125E-2,-1.0884329E-3,8.630775E-3,-1.3354117E-2,1.835214E-3,-1.1628449E-2,-2.785709E-2,7.038281E-5,-1.4610034E-2,4.474737E-3,1.7041579E-2,-1.2940052E-2,-8.6892827E-4,-1.8505348E-2,-3.6300406E-2,2.4053322E-4,-3.3946514E-2,-3.0743295E-2,-1.6851557E-2,-2.844562E-2,-3.7329823E-2],"categories":[],"categories_nodes":[],"categories_segments":[],"categories_sizes":[],"default_left":[0,0,0,0,0,0,0,0,0,0,0,0,0,0,0,0,0,0,0,0,0,0,0,0,0,0,0,0,0,0,0,0,0,0,0,0,0,0,0,0,0,0,0,0,0,0,0,0,0,0,0,0,0,0,0,0,0,0,0,0,0,0,0],"id":17,"left_children":[1,3,5,7,9,11,13,15,17,19,21,23,25,27,29,31,33,35,37,39,41,43,45,47,49,51,53,55,57,59,61,-1,-1,-1,-1,-1,-1,-1,-1,-1,-1,-1,-1,-1,-1,-1,-1,-1,-1,-1,-1,-1,-1,-1,-1,-1,-1,-1,-1,-1,-1,-1,-1],"loss_changes":[5.8305414E2,2.2017697E2,1.849379E2,3.1839111E1,1.5441078E2,9.167936E1,3.828839E1,3.3775635E0,2.5090317E1,3.2948532E1,8.97268E1,4.9623444E1,5.939038E1,1.8410337E1,3.2542175E1,2.202896E0,2.4436493E0,4.767685E0,1.511248E1,1.1150128E1,3.1288757E1,3.5221687E1,5.504745E1,2.4328491E1,1.0048617E1,9.609467E0,1.1820236E1,3.0988235E0,6.7489653E0,1.2410202E1,5.5319824E0,0E0,0E0,0E0,0E0,0E0,0E0,0E0,0E0,0E0,0E0,0E0,0E0,0E0,0E0,0E0,0E0,0E0,0E0,0E0,0E0,0E0,0E0,0E0,0E0,0E0,0E0,0E0,0E0,0E0,0E0,0E0,0E0],"parents":[2147483647,0,0,1,1,2,2,3,3,4,4,5,5,6,6,7,7,8,8,9,9,10,10,11,11,12,12,13,13,14,14,15,15,16,16,17,17,18,18,19,19,20,20,21,21,22,22,23,23,24,24,25,25,26,26,27,27,28,28,29,29,30,30],"right_children":[2,4,6,8,10,12,14,16,18,20,22,24,26,28,30,32,34,36,38,40,42,44,46,48,50,52,54,56,58,60,62,-1,-1,-1,-1,-1,-1,-1,-1,-1,-1,-1,-1,-1,-1,-1,-1,-1,-1,-1,-1,-1,-1,-1,-1,-1,-1,-1,-1,-1,-1,-1,-1],"split_conditions":[2E-1,-1.25E0,1.5E1,-2.6E0,-1.8E1,1E0,1E0,5.3333336E-1,-4.9E1,1E0,5E0,8.3333336E-2,-2.3E1,-7.5E-1,6.1E1,-1.3E1,1.22E2,2E0,5E-2,2E0,-7.7E1,0E0,-7E0,2.5E0,1.65E0,1E0,-3E1,2.6666667E0,4.25E0,1.4E1,9.7E1,3.537793E-2,2.1502988E-2,1.0960726E-2,3.7517752E-2,2.0385375E-2,3.326543E-2,7.95442E-3,1.9383634E-2,-1.8966403E-3,1.878632E-2,3.0582706E-2,1.4594125E-2,-1.0884329E-3,8.630775E-3,-1.3354117E-2,1.835214E-3,-1.1628449E-2,-2.785709E-2,7.038281E-5,-1.4610034E-2,4.474737E-3,1.7041579E-2,-1.2940052E-2,-8.6892827E-4,-1.8505348E-2,-3.6300406E-2,2.4053322E-4,-3.3946514E-2,-3.0743295E-2,-1.6851557E-2,-2.844562E-2,-3.7329823E-2],"split_indices":[19,19,16,19,16,13,9,18,16,13,9,18,16,18,16,16,12,1,18,6,16,18,17,19,19,0,17,3,3,12,16,0,0,0,0,0,0,0,0,0,0,0,0,0,0,0,0,0,0,0,0,0,0,0,0,0,0,0,0,0,0,0,0],"split_type":[0,0,0,0,0,0,0,0,0,0,0,0,0,0,0,0,0,0,0,0,0,0,0,0,0,0,0,0,0,0,0,0,0,0,0,0,0,0,0,0,0,0,0,0,0,0,0,0,0,0,0,0,0,0,0,0,0,0,0,0,0,0,0],"sum_hessian":[1.9693094E4,1.0947597E4,8.745497E3,2.1385095E3,8.809087E3,6.225515E3,2.5199822E3,4.5609637E2,1.6824132E3,2.4053386E3,6.403748E3,4.125394E3,2.1001208E3,4.423355E2,2.0776467E3,1.3731378E2,3.187826E2,3.9371457E2,1.2886986E3,4.1373767E2,1.9916011E3,3.9166245E3,2.4871235E3,2.8014216E3,1.3239725E3,8.230668E2,1.2770541E3,1.21896965E2,3.2043857E2,1.2796565E3,7.9799023E2,4.989213E1,8.7421646E1,9.941806E0,3.088408E2,1.0419233E2,2.8952225E2,4.4234836E2,8.463503E2,3.3381265E2,7.992502E1,3.7841827E2,1.6131827E3,1.5280045E3,2.3886199E3,1.4958169E3,9.9130664E2,2.5476873E3,2.5373434E2,1.1958186E3,1.2815396E2,2.0258864E2,6.2047815E2,2.5186456E2,1.0251896E3,8.504027E1,3.685669E1,3.0628894E2,1.4149635E1,1.9013026E2,1.0895262E3,4.967557E2,3.0123456E2],"tree_param":{"num_deleted":"0","num_feature":"20","num_nodes":"63","size_leaf_vector":"1"}},{"base_weights":[-5.6072965E-4,-1.2425934E-1,2.74866E-1,1.22183934E-1,-1.9925702E-1,2.0376205E-1,6.4458746E-1,-1.537075E-1,2.0864579E-1,-3.5672572E-1,-1.3044314E-1,1.1684839E-1,4.429447E-1,3.057285E-1,7.5297445E-1,2.636743E-1,-2.3138131E-1,4.1687477E-1,8.9029185E-2,-1.1210981E-1,-4.2379647E-1,-4.771886E-2,-2.334213E-1,-1.0442909E-1,1.8894011E-1,3.4805268E-1,7.2893363E-1,1.07993335E-1,9.4977945E-1,6.704267E-1,1.0964779E0,6.7783133E-3,3.1360857E-2,-1.2221222E-2,2.121613E-2,1.6490048E-2,3.6192562E-2,5.9104775E-4,9.29364E-3,-2.941373E-3,-2.8822405E-2,-2.6289865E-2,-1.7927976E-2,4.17675E-3,-5.174062E-3,-1.8522257E-2,-9.1127E-3,9.368851E-3,-1.0865833E-2,1.7240915E-2,6.608361E-3,2.4391195E-2,1.1608625E-2,4.9894094E-2,3.161949E-2,2.2189634E-2,1.5885712E-3,1.8499658E-2,4.9873035E-2,2.8661301E-2,3.9932624E-2,4.0777665E-2,5.7035595E-2],"categories":[],"categories_nodes":[],"categories_segments":[],"categories_sizes":[],"default_left":[0,0,0,0,0,0,0,0,0,0,0,0,0,0,0,0,0,0,0,0,0,0,0,0,0,0,0,0,0,0,0,0,0,0,0,0,0,0,0,0,0,0,0,0,0,0,0,0,0,0,0,0,0,0,0,0,0,0,0,0,0,0,0],"id":18,"left_children":[1,3,5,7,9,11,13,15,17,19,21,23,25,27,29,31,33,35,37,39,41,43,45,47,49,51,53,55,57,59,61,-1,-1,-1,-1,-1,-1,-1,-1,-1,-1,-1,-1,-1,-1,-1,-1,-1,-1,-1,-1,-1,-1,-1,-1,-1,-1,-1,-1,-1,-1,-1,-1],"loss_changes":[5.460731E2,2.0445277E2,1.3045679E2,6.1605038E1,9.1846375E1,8.6587265E1,2.9180664E1,2.0047367E1,4.8924957E1,4.225415E1,5.0275078E1,4.8805717E1,2.9881699E1,2.482605E1,1.6449158E1,4.4415655E0,4.553499E0,1.8924896E1,9.342722E0,1.3726627E1,1.3274017E1,2.397591E1,1.8367035E1,2.4818129E1,2.0371262E1,1.3422432E1,6.5286407E0,3.8480744E0,8.985405E-1,5.664154E0,5.0923157E-1,0E0,0E0,0E0,0E0,0E0,0E0,0E0,0E0,0E0,0E0,0E0,0E0,0E0,0E0,0E0,0E0,0E0,0E0,0E0,0E0,0E0,0E0,0E0,0E0,0E0,0E0,0E0,0E0,0E0,0E0,0E0,0E0],"parents":[2147483647,0,0,1,1,2,2,3,3,4,4,5,5,6,6,7,7,8,8,9,9,10,10,11,11,12,12,13,13,14,14,15,15,16,16,17,17,18,18,19,19,20,20,21,21,22,22,23,23,24,24,25,25,26,26,27,27,28,28,29,29,30,30],"right_children":[2,4,6,8,10,12,14,16,18,20,22,24,26,28,30,32,34,36,38,40,42,44,46,48,50,52,54,56,58,60,62,-1,-1,-1,-1,-1,-1,-1,-1,-1,-1,-1,-1,-1,-1,-1,-1,-1,-1,-1,-1,-1,-1,-1,-1,-1,-1,-1,-1,-1,-1,-1,-1],"split_conditions":[5.5E-1,-9E0,6.2E1,2E0,-2.4E1,1.55E0,1E0,3E1,-1.75E2,1E0,2.6666668E-1,0E0,2.8E0,2.8E0,1.22E2,2.2E0,2.7E0,8E1,2.4E1,3.2E0,-6.2E1,1E0,-1.15E0,9E0,1E0,-7.5E-1,-1.8333334E0,-9.5E-1,2E0,2.25E0,5.95E2,6.7783133E-3,3.1360857E-2,-1.2221222E-2,2.121613E-2,1.6490048E-2,3.6192562E-2,5.9104775E-4,9.29364E-3,-2.941373E-3,-2.8822405E-2,-2.6289865E-2,-1.7927976E-2,4.17675E-3,-5.174062E-3,-1.8522257E-2,-9.1127E-3,9.368851E-3,-1.0865833E-2,1.7240915E-2,6.608361E-3,2.4391195E-2,1.1608625E-2,4.9894094E-2,3.161949E-2,2.2189634E-2,1.5885712E-3,1.8499658E-2,4.9873035E-2,2.8661301E-2,3.9932624E-2,4.0777665E-2,5.7035595E-2],"split_indices":[19,17,16,9,16,19,9,12,17,13,18,16,19,3,16,2,18,16,16,6,16,0,19,13,0,18,18,18,1,3,13,0,0,0,0,0,0,0,0,0,0,0,0,0,0,0,0,0,0,0,0,0,0,0,0,0,0,0,0,0,0,0,0],"split_type":[0,0,0,0,0,0,0,0,0,0,0,0,0,0,0,0,0,0,0,0,0,0,0,0,0,0,0,0,0,0,0,0,0,0,0,0,0,0,0,0,0,0,0,0,0,0,0,0,0,0,0,0,0,0,0,0,0,0,0,0,0,0,0],"sum_hessian":[1.6026017E4,1.1059545E4,4.9664717E3,2.5802341E3,8.479311E3,4.1666943E3,7.9977765E2,6.154893E2,1.9647449E3,2.5773362E3,5.9019746E3,3.0572468E3,1.1094474E3,1.9474657E2,6.0503107E2,9.6194046E1,5.192952E2,7.159433E2,1.2488015E3,5.551828E2,2.0221534E3,3.2736519E3,2.6283228E3,7.51169E2,2.306078E3,8.347062E2,2.7474112E2,1.4989407E2,4.485249E1,4.9018567E2,1.14845406E2,7.214421E1,2.404983E1,5.09782E2,9.51324E0,5.593563E2,1.5658699E2,6.954659E2,5.533357E2,4.9904462E2,5.613818E1,7.8605756E2,1.2360958E3,9.7595197E2,2.2977E3,7.129181E2,1.9154045E3,2.0935129E2,5.418177E2,6.143146E2,1.6917634E3,3.7689594E2,4.5781027E2,7.01061E1,2.0463503E2,2.6837555E1,1.23056526E2,4.073987E0,4.07785E1,2.8193616E2,2.0824951E2,1.8267574E1,9.6577835E1],"tree_param":{"num_deleted":"0","num_feature":"20","num_nodes":"63","size_leaf_vector":"1"}},{"base_weights":[1.1796972E-3,2.9990876E-2,-2.3235577E-1,4.7909003E-2,-9.622694E-2,-4.3611267E-1,-1.8592446E-1,-6.3788325E-2,6.926512E-2,-6.481693E-2,-3.342925E-1,-2.4270351E-1,-4.9728072E-1,-2.1496667E-1,4.7223873E-2,6.6331655E-2,-1.3451435E-1,1.3093759E-1,2.1515999E-2,-5.008966E-2,-4.3199566E-1,-3.483205E-1,3.935167E-2,2.9956654E-2,-2.6504245E-1,7.96955E-2,-5.166443E-1,-1.7959155E-1,-3.923323E-1,-4.9807495E-1,1.0478772E-1,4.929209E-3,-1.351364E-2,-1.5665017E-2,-3.2368288E-3,-6.90867E-3,6.949355E-3,8.022275E-3,3.075635E-4,-7.1233013E-3,-7.1469566E-4,3.7760716E-3,-2.3058128E-2,-2.8583173E-2,-1.4812984E-2,-1.7628346E-2,-3.8075969E-3,4.3952655E-2,-1.7277947E-2,-1.3803451E-2,-2.6730804E-2,-3.904114E-3,-1.2098609E-2,-2.0074492E-2,2.394379E-2,-2.8374786E-2,4.722385E-3,1.881572E-2,1.0705176E-3],"categories":[],"categories_nodes":[],"categories_segments":[],"categories_sizes":[],"default_left":[0,0,0,0,0,0,0,0,0,0,0,0,0,0,0,0,0,0,0,0,0,0,0,0,0,0,0,0,0,0,0,0,0,0,0,0,0,0,0,0,0,0,0,0,0,0,0,0,0,0,0,0,0,0,0,0,0,0,0],"id":19,"left_children":[1,3,5,7,9,11,13,15,17,19,21,23,25,27,29,31,33,35,37,39,41,43,-1,-1,45,47,49,51,53,55,57,-1,-1,-1,-1,-1,-1,-1,-1,-1,-1,-1,-1,-1,-1,-1,-1,-1,-1,-1,-1,-1,-1,-1,-1,-1,-1,-1,-1],"loss_changes":[9.3432655E1,2.7960552E1,1.4346512E1,2.5827087E1,1.14715E1,3.2187538E0,8.431606E0,1.600397E1,2.6760025E1,7.327706E0,3.0884266E0,1.470994E0,2.4264488E0,6.8698387E0,4.402291E0,6.6784105E0,1.4031164E1,8.609695E0,1.0935675E1,4.322485E0,8.0869675E-1,1.8932858E0,0E0,0E0,1.1083765E0,2.9548173E0,7.4609375E-1,5.8324146E0,1.6529636E0,6.050508E-1,2.8485112E0,0E0,0E0,0E0,0E0,0E0,0E0,0E0,0E0,0E0,0E0,0E0,0E0,0E0,0E0,0E0,0E0,0E0,0E0,0E0,0E0,0E0,0E0,0E0,0E0,0E0,0E0,0E0,0E0],"parents":[2147483647,0,0,1,1,2,2,3,3,4,4,5,5,6,6,7,7,8,8,9,9,10,10,11,11,12,12,13,13,14,14,15,15,16,16,17,17,18,18,19,19,20,20,21,21,24,24,25,25,26,26,27,27,28,28,29,29,30,30],"right_children":[2,4,6,8,10,12,14,16,18,20,22,24,26,28,30,32,34,36,38,40,42,44,-1,-1,46,48,50,52,54,56,58,-1,-1,-1,-1,-1,-1,-1,-1,-1,-1,-1,-1,-1,-1,-1,-1,-1,-1,-1,-1,-1,-1,-1,-1,-1,-1,-1,-1],"split_conditions":[2.5E0,2.25E0,-2.6E0,-3.9E1,2.85E0,2.6666668E-1,2E0,1.9E1,1.44E2,1.21E2,2.6666667E0,3.1E1,1.22E2,1.3E0,-9.1E1,1.25E0,-7.7E1,-5.34E2,5E-1,1E0,-1.2E1,-2.55E0,3.935167E-2,2.9956654E-2,2E-1,-5.94E0,3.5E0,2E0,4.5E1,8E1,-5.3E1,4.929209E-3,-1.351364E-2,-1.5665017E-2,-3.2368288E-3,-6.90867E-3,6.949355E-3,8.022275E-3,3.075635E-4,-7.1233013E-3,-7.1469566E-4,3.7760716E-3,-2.3058128E-2,-2.8583173E-2,-1.4812984E-2,-1.7628346E-2,-3.8075969E-3,4.3952655E-2,-1.7277947E-2,-1.3803451E-2,-2.6730804E-2,-3.904114E-3,-1.2098609E-2,-2.0074492E-2,2.394379E-2,-2.8374786E-2,4.722385E-3,1.881572E-2,1.0705176E-3],"split_indices":[6,3,19,16,19,18,14,13,8,16,2,8,12,18,16,18,16,17,6,0,11,18,0,0,18,15,6,1,11,8,17,0,0,0,0,0,0,0,0,0,0,0,0,0,0,0,0,0,0,0,0,0,0,0,0,0,0,0,0],"split_type":[0,0,0,0,0,0,0,0,0,0,0,0,0,0,0,0,0,0,0,0,0,0,0,0,0,0,0,0,0,0,0,0,0,0,0,0,0,0,0,0,0,0,0,0,0,0,0,0,0,0,0,0,0,0,0,0,0,0,0],"sum_hessian":[1.3884209E4,1.2360207E4,1.5240023E3,1.0824202E4,1.5360045E3,2.8127527E2,1.242727E3,1.73705E3,9.087152E3,1.3580922E3,1.7791235E2,6.8776505E1,2.1249876E2,1.1051425E3,1.3758452E2,6.1170764E2,1.1253424E3,3.9646687E3,5.122484E3,1.3068132E3,5.1278893E1,1.7639497E2,1.5173701E0,1.1104228E0,6.7666084E1,6.7988114E0,2.0569995E2,9.2305426E2,1.8208821E2,1.2406446E1,1.2517808E2,5.588658E2,5.284189E1,3.1493066E2,8.104117E2,1.146756E2,3.8499932E3,5.0916028E2,4.613323E3,3.6413293E2,9.426803E2,2.7004533E0,4.8578438E1,3.1458069E1,1.449369E2,4.5648056E1,2.2018026E1,1.9903657E0,4.8084455E0,1.5435607E1,1.9026434E2,3.5219473E2,5.7085956E2,1.8072768E2,1.3605254E0,1.114314E1,1.2633072E0,2.8582603E1,9.6595474E1],"tree_param":{"num_deleted":"0","num_feature":"20","num_nodes":"59","size_leaf_vector":"1"}},{"base_weights":[-3.7609332E-4,2.0841886E-1,-1.3167568E-1,4.6828672E-1,1.3621578E-1,-4.26913E-2,-3.617421E-1,2.8432176E-1,5.4918605E-1,3.32205E-1,5.6789473E-2,-1.276995E-1,1.06032215E-1,-7.365472E-2,-4.2919287E-1,2.369072E-1,6.63534E-1,6.4971733E-1,4.2154115E-1,1.5070403E-1,3.9721003E-1,1.3574407E-1,-8.8027604E-2,-5.1618636E-2,-2.8570145E-1,2.7705327E-1,-5.187567E-2,1.5150812E-2,-4.2252496E-1,-2.7536163E-1,-5.4091084E-1,9.625153E-3,3.306905E-2,3.610428E-2,-4.0482623E-3,3.6106803E-2,2.6941782E-2,6.6340724E-3,2.3457594E-2,3.7002347E-2,5.7770293E-3,1.487626E-2,2.349232E-2,-7.9105375E-5,1.0637193E-2,5.01722E-3,-9.826577E-3,-6.425317E-3,1.2266582E-3,-1.7188994E-2,-5.0659524E-3,1.1041741E-2,2.506814E-2,-1.0421658E-2,7.636809E-4,-1.3382423E-2,4.0972503E-3,-3.1984262E-2,-1.3664526E-2,-2.3448458E-2,-1.1578406E-2,-2.4339546E-2,-3.5939198E-2],"categories":[],"categories_nodes":[],"categories_segments":[],"categories_sizes":[],"default_left":[0,0,0,0,0,0,0,0,0,0,0,0,0,0,0,0,0,0,0,0,0,0,0,0,0,0,0,0,0,0,0,0,0,0,0,0,0,0,0,0,0,0,0,0,0,0,0,0,0,0,0,0,0,0,0,0,0,0,0,0,0,0,0],"id":20,"left_children":[1,3,5,7,9,11,13,15,17,19,21,23,25,27,29,31,33,35,37,39,41,43,45,47,49,51,53,55,57,59,61,-1,-1,-1,-1,-1,-1,-1,-1,-1,-1,-1,-1,-1,-1,-1,-1,-1,-1,-1,-1,-1,-1,-1,-1,-1,-1,-1,-1,-1,-1,-1,-1],"loss_changes":[5.389701E2,1.423504E2,2.4708218E2,2.4398987E1,9.246507E1,1.1006404E2,6.537918E1,8.9411125E0,1.4417786E1,2.0152603E1,4.8366203E1,6.657189E1,8.552559E1,1.982911E1,4.6722717E1,8.379641E0,2.4857635E0,4.738983E0,6.9142E0,9.309964E0,8.989075E0,2.8944256E1,3.0530132E1,2.1901978E1,1.924202E1,1.9060204E1,1.7319462E1,9.673742E0,4.0335293E0,9.637329E0,1.4849487E1,0E0,0E0,0E0,0E0,0E0,0E0,0E0,0E0,0E0,0E0,0E0,0E0,0E0,0E0,0E0,0E0,0E0,0E0,0E0,0E0,0E0,0E0,0E0,0E0,0E0,0E0,0E0,0E0,0E0,0E0,0E0,0E0],"parents":[2147483647,0,0,1,1,2,2,3,3,4,4,5,5,6,6,7,7,8,8,9,9,10,10,11,11,12,12,13,13,14,14,15,15,16,16,17,17,18,18,19,19,20,20,21,21,22,22,23,23,24,24,25,25,26,26,27,27,28,28,29,29,30,30],"right_children":[2,4,6,8,10,12,14,16,18,20,22,24,26,28,30,32,34,36,38,40,42,44,46,48,50,52,54,56,58,60,62,-1,-1,-1,-1,-1,-1,-1,-1,-1,-1,-1,-1,-1,-1,-1,-1,-1,-1,-1,-1,-1,-1,-1,-1,-1,-1,-1,-1,-1,-1,-1,-1],"split_conditions":[-2E-1,-1.4E0,1.3E1,2E0,-2.1E1,1E0,1E0,2.94E2,1E0,1E0,2E1,8.666667E-1,-1.9E1,1.05E0,3.9E1,2.05E0,4E0,-2E0,9.7E1,4E0,2.5E-1,-5E-2,-2E0,-5E-2,8.3333336E-2,3.19E2,1E0,2.9E1,5E-1,1.6E1,9.3E1,9.625153E-3,3.306905E-2,3.610428E-2,-4.0482623E-3,3.6106803E-2,2.6941782E-2,6.6340724E-3,2.3457594E-2,3.7002347E-2,5.7770293E-3,1.487626E-2,2.349232E-2,-7.9105375E-5,1.0637193E-2,5.01722E-3,-9.826577E-3,-6.425317E-3,1.2266582E-3,-1.7188994E-2,-5.0659524E-3,1.1041741E-2,2.506814E-2,-1.0421658E-2,7.636809E-4,-1.3382423E-2,4.0972503E-3,-3.1984262E-2,-1.3664526E-2,-2.3448458E-2,-1.1578406E-2,-2.4339546E-2,-3.5939198E-2],"split_indices":[19,19,16,1,16,13,9,17,5,0,9,19,16,19,16,18,14,19,12,8,18,18,16,18,18,17,0,12,4,12,16,0,0,0,0,0,0,0,0,0,0,0,0,0,0,0,0,0,0,0,0,0,0,0,0,0,0,0,0,0,0,0,0],"split_type":[0,0,0,0,0,0,0,0,0,0,0,0,0,0,0,0,0,0,0,0,0,0,0,0,0,0,0,0,0,0,0,0,0,0,0,0,0,0,0,0,0,0,0,0,0,0,0,0,0,0,0,0,0,0,0,0,0,0,0,0,0,0,0],"sum_hessian":[1.9657898E4,7.589056E3,1.2068841E4,1.6489165E3,5.9401396E3,8.703654E3,3.3651868E3,5.0501877E2,1.1438977E3,1.7121423E3,4.2279976E3,5.538226E3,3.1654282E3,6.388218E2,2.726365E3,4.5033603E2,5.468273E1,6.3762396E2,5.0627374E2,4.5237665E2,1.2597656E3,2.7362502E3,1.4917472E3,3.7391047E3,1.7991213E3,1.519255E3,1.6461732E3,5.099657E2,1.288561E2,1.1484537E3,1.5779113E3,4.0900372E2,4.1332317E1,5.0723644E1,3.9590862E0,3.8237552E2,2.5524847E2,7.2173836E1,4.340999E2,2.4342804E1,4.2803384E2,5.3316095E2,7.266047E2,9.833904E2,1.7528599E3,5.4523987E2,9.465074E2,1.8602205E3,1.8788843E3,1.3675072E3,4.3161414E2,1.2163798E3,3.0287527E2,4.9349454E2,1.1526786E3,9.686076E1,4.1310492E2,5.114517E1,7.771093E1,2.1006494E2,9.3838885E2,1.2126771E3,3.6523407E2],"tree_param":{"num_deleted":"0","num_feature":"20","num_nodes":"63","size_leaf_vector":"1"}},{"base_weights":[-6.867828E-4,-1.415336E-1,2.2426057E-1,9.789624E-2,-2.1318755E-1,-8.736655E-2,3.0212218E-1,2.648171E-1,-3.0006414E-2,-3.4513006E-1,-1.3801782E-1,2.1654086E-1,-2.0270684E-1,2.2786237E-1,5.9775656E-1,3.6150277E-1,1.3604556E-1,-2.6335874E-1,8.686479E-2,-1.2202203E-1,-3.9530048E-1,-3.349219E-1,-9.60088E-2,-3.1378034E-1,3.0744064E-1,-4.1740805E-1,-1.0164605E-1,4.4751036E-1,1.6865903E-1,3.7745264E-1,7.155195E-1,1.1364037E-2,2.323561E-2,3.5254897E-3,1.9261697E-2,-1.616229E-2,-4.2189867E-3,7.791369E-4,2.6515413E-2,-3.083499E-3,-2.8685212E-2,-2.4182122E-2,-1.5252451E-2,-1.0765534E-2,-2.00697E-2,2.0545167E-3,-7.5972006E-3,-2.12348E-3,-2.8119205E-2,1.2616317E-2,3.791765E-2,-1.7984934E-2,-2.7489457E-2,3.178227E-3,-8.528178E-3,5.6247097E-3,2.655207E-2,1.1930035E-2,1.262162E-3,5.3499263E-2,1.7666748E-2,3.1214759E-2,4.658806E-2],"categories":[],"categories_nodes":[],"categories_segments":[],"categories_sizes":[],"default_left":[0,0,0,0,0,0,0,0,0,0,0,0,0,0,0,0,0,0,0,0,0,0,0,0,0,0,0,0,0,0,0,0,0,0,0,0,0,0,0,0,0,0,0,0,0,0,0,0,0,0,0,0,0,0,0,0,0,0,0,0,0,0,0],"id":21,"left_children":[1,3,5,7,9,11,13,15,17,19,21,23,25,27,29,31,33,35,37,39,41,43,45,47,49,51,53,55,57,59,61,-1,-1,-1,-1,-1,-1,-1,-1,-1,-1,-1,-1,-1,-1,-1,-1,-1,-1,-1,-1,-1,-1,-1,-1,-1,-1,-1,-1,-1,-1,-1,-1],"loss_changes":[5.0698184E2,1.6884203E2,1.495238E2,4.8413223E1,7.5072266E1,4.3245422E1,1.0809277E2,1.2198296E1,3.5055645E1,3.0714325E1,3.9893646E1,1.6464931E1,1.9353722E1,5.1182816E1,2.5390808E1,7.669327E0,6.888226E0,4.5700245E0,2.707004E1,1.3757985E1,1.7738129E1,6.6583023E0,3.0523396E1,3.3606725E0,7.024891E0,1.9854965E0,6.9464393E0,2.334282E1,3.115432E1,5.4119987E0,1.2111084E1,0E0,0E0,0E0,0E0,0E0,0E0,0E0,0E0,0E0,0E0,0E0,0E0,0E0,0E0,0E0,0E0,0E0,0E0,0E0,0E0,0E0,0E0,0E0,0E0,0E0,0E0,0E0,0E0,0E0,0E0,0E0,0E0],"parents":[2147483647,0,0,1,1,2,2,3,3,4,4,5,5,6,6,7,7,8,8,9,9,10,10,11,11,12,12,13,13,14,14,15,15,16,16,17,17,18,18,19,19,20,20,21,21,22,22,23,23,24,24,25,25,26,26,27,27,28,28,29,29,30,30],"right_children":[2,4,6,8,10,12,14,16,18,20,22,24,26,28,30,32,34,36,38,40,42,44,46,48,50,52,54,56,58,60,62,-1,-1,-1,-1,-1,-1,-1,-1,-1,-1,-1,-1,-1,-1,-1,-1,-1,-1,-1,-1,-1,-1,-1,-1,-1,-1,-1,-1,-1,-1,-1,-1],"split_conditions":[3.5E-1,-7E0,0E0,4.9E1,-1.5E1,1E0,1.8E0,-1.5E-1,6E0,1E0,-1.25E0,4.4E1,-3.6E1,-1.94E2,2E0,3.5E1,1.45674E3,1.3333334E0,6.3E1,3.25E0,-4.6E1,2E0,1E0,6.98E2,1.74E2,6.5E-1,1E0,1E0,8.3333336E-2,-3.6E0,2.9E0,1.1364037E-2,2.323561E-2,3.5254897E-3,1.9261697E-2,-1.616229E-2,-4.2189867E-3,7.791369E-4,2.6515413E-2,-3.083499E-3,-2.8685212E-2,-2.4182122E-2,-1.5252451E-2,-1.0765534E-2,-2.00697E-2,2.0545167E-3,-7.5972006E-3,-2.12348E-3,-2.8119205E-2,1.2616317E-2,3.791765E-2,-1.7984934E-2,-2.7489457E-2,3.178227E-3,-8.528178E-3,5.6247097E-3,2.655207E-2,1.1930035E-2,1.262162E-3,5.3499263E-2,1.7666748E-2,3.1214759E-2,4.658806E-2],"split_indices":[19,17,16,12,16,13,19,18,9,13,19,8,16,17,1,16,13,3,16,6,16,1,0,17,8,18,0,9,18,18,19,0,0,0,0,0,0,0,0,0,0,0,0,0,0,0,0,0,0,0,0,0,0,0,0,0,0,0,0,0,0,0,0],"split_type":[0,0,0,0,0,0,0,0,0,0,0,0,0,0,0,0,0,0,0,0,0,0,0,0,0,0,0,0,0,0,0,0,0,0,0,0,0,0,0,0,0,0,0,0,0,0,0,0,0,0,0,0,0,0,0,0,0,0,0,0,0,0,0],"sum_hessian":[1.5999638E4,9.839303E3,6.1603354E3,2.266266E3,7.5730366E3,1.2314713E3,4.928864E3,9.82705E2,1.2835612E3,2.7472698E3,4.825767E3,3.3855176E2,8.929195E2,3.9407625E3,9.881016E2,5.6024695E2,4.224581E2,4.2791196E2,8.556492E2,5.0499384E2,2.242276E3,8.473073E2,3.9784597E3,4.91796E1,2.8937216E2,2.847803E2,6.0813916E2,8.3527655E2,3.1054858E3,3.456623E2,6.4243933E2,2.449265E2,3.1532043E2,3.3550446E2,8.6953674E1,3.200246E2,1.0788738E2,7.380459E2,1.17603264E2,4.464742E2,5.8519646E1,1.1309225E3,1.1113534E3,3.0418668E2,5.4312067E2,1.152908E3,2.8255518E3,2.40757E1,2.51039E1,2.592447E2,3.0127468E1,2.0091281E2,8.38675E1,1.7903355E2,4.2910562E2,1.6716759E2,6.68109E2,2.0870164E3,1.0184695E3,1.0173334E1,3.3548895E2,4.5456317E2,1.8787614E2],"tree_param":{"num_deleted":"0","num_feature":"20","num_nodes":"63","size_leaf_vector":"1"}},{"base_weights":[1.5075281E-3,2.9187405E-2,-2.255919E-1,4.6549067E-2,-9.367682E-2,-4.277641E-1,-1.8020836E-1,-6.032685E-2,6.684535E-2,-6.334273E-2,-3.2667604E-1,-2.3306039E-1,-4.8993748E-1,6.982153E-3,-2.1599096E-1,6.566412E-2,-1.2933977E-1,1.2495137E-1,1.972013E-2,-4.909086E-2,-4.2445716E-1,-3.4076822E-1,3.856985E-2,2.954692E-2,-2.5550166E-1,8.5064575E-2,-5.096175E-1,2.1491326E-1,-1.24472894E-1,-1.8251593E-1,-3.7407988E-1,4.838499E-3,-1.3167973E-2,-1.5309465E-2,-3.0471566E-3,-6.7934007E-3,6.638497E-3,7.758771E-3,2.300724E-4,-4.570694E-3,1.4101486E-3,-2.8135551E-2,-1.4267834E-2,-2.827735E-2,-1.4450068E-2,-2.1499105E-2,-7.6752477E-3,3.289513E-2,-2.412958E-2,-2.147452E-2,-2.8638525E-2,1.5858106E-2,-2.3855144E-2,-1.7583048E-2,4.5292015E-4,-8.247131E-3,-2.0252744E-2,-1.9329414E-2,1.3519326E-2],"categories":[],"categories_nodes":[],"categories_segments":[],"categories_sizes":[],"default_left":[0,0,0,0,0,0,0,0,0,0,0,0,0,0,0,0,0,0,0,0,0,0,0,0,0,0,0,0,0,0,0,0,0,0,0,0,0,0,0,0,0,0,0,0,0,0,0,0,0,0,0,0,0,0,0,0,0,0,0],"id":22,"left_children":[1,3,5,7,9,11,13,15,17,19,21,23,25,27,29,31,33,35,37,39,41,43,-1,-1,45,47,49,51,53,55,57,-1,-1,-1,-1,-1,-1,-1,-1,-1,-1,-1,-1,-1,-1,-1,-1,-1,-1,-1,-1,-1,-1,-1,-1,-1,-1,-1,-1],"loss_changes":[8.72334E1,2.6390118E1,1.3756119E1,2.3515142E1,1.0805995E1,3.2228584E0,8.260292E0,1.5053863E1,2.494128E1,6.961047E0,2.989664E0,1.4200308E0,2.3975182E0,5.4617257E0,5.40979E0,6.2997007E0,1.3508253E1,8.336502E0,1.0302577E1,4.275679E0,8.2746506E-1,1.8690987E0,0E0,0E0,1.1353769E0,2.8348806E0,7.726059E-1,5.626796E0,3.7180786E0,3.281639E0,1.5550404E0,0E0,0E0,0E0,0E0,0E0,0E0,0E0,0E0,0E0,0E0,0E0,0E0,0E0,0E0,0E0,0E0,0E0,0E0,0E0,0E0,0E0,0E0,0E0,0E0,0E0,0E0,0E0,0E0],"parents":[2147483647,0,0,1,1,2,2,3,3,4,4,5,5,6,6,7,7,8,8,9,9,10,10,11,11,12,12,13,13,14,14,15,15,16,16,17,17,18,18,19,19,20,20,21,21,24,24,25,25,26,26,27,27,28,28,29,29,30,30],"right_children":[2,4,6,8,10,12,14,16,18,20,22,24,26,28,30,32,34,36,38,40,42,44,-1,-1,46,48,50,52,54,56,58,-1,-1,-1,-1,-1,-1,-1,-1,-1,-1,-1,-1,-1,-1,-1,-1,-1,-1,-1,-1,-1,-1,-1,-1,-1,-1,-1,-1],"split_conditions":[2.5E0,2.25E0,-2.6E0,-3.9E1,2.85E0,2.6666668E-1,1.37E2,1.9E1,1.5E2,1.21E2,2.6666667E0,3.1E1,1.22E2,2E0,1.3E0,1.25E0,-7.7E1,-5.34E2,5E-1,2.3E1,1.6666666E0,-2.55E0,3.856985E-2,2.954692E-2,-1.5E1,-1.99E0,4.75E0,2.72E2,6.666667E-1,2.72E2,1.6666666E0,4.838499E-3,-1.3167973E-2,-1.5309465E-2,-3.0471566E-3,-6.7934007E-3,6.638497E-3,7.758771E-3,2.300724E-4,-4.570694E-3,1.4101486E-3,-2.8135551E-2,-1.4267834E-2,-2.827735E-2,-1.4450068E-2,-2.1499105E-2,-7.6752477E-3,3.289513E-2,-2.412958E-2,-2.147452E-2,-2.8638525E-2,1.5858106E-2,-2.3855144E-2,-1.7583048E-2,4.5292015E-4,-8.247131E-3,-2.0252744E-2,-1.9329414E-2,1.3519326E-2],"split_indices":[6,3,19,16,19,18,12,13,8,16,2,8,12,1,18,18,16,17,6,9,7,18,0,0,16,15,6,17,5,17,7,0,0,0,0,0,0,0,0,0,0,0,0,0,0,0,0,0,0,0,0,0,0,0,0,0,0,0,0],"split_type":[0,0,0,0,0,0,0,0,0,0,0,0,0,0,0,0,0,0,0,0,0,0,0,0,0,0,0,0,0,0,0,0,0,0,0,0,0,0,0,0,0,0,0,0,0,0,0,0,0,0,0,0,0,0,0,0,0,0,0],"sum_hessian":[1.3875177E4,1.2368519E4,1.5066581E3,1.083769E4,1.5308281E3,2.746658E2,1.2319922E3,1.7293464E3,9.108344E3,1.355613E3,1.75215E2,6.762824E1,2.0703757E2,1.9783867E2,1.0341536E3,6.120421E2,1.1173043E3,4.078208E3,5.030136E3,1.3052361E3,5.0376953E1,1.736758E2,1.5392122E0,1.1213633E0,6.6506874E1,6.7416234E0,2.0029594E2,7.638329E1,1.2145537E2,8.5521735E2,1.7893619E2,5.5982245E2,5.221966E1,3.1063507E2,8.0666925E2,1.18217606E2,3.9599905E3,5.041308E2,4.5260054E3,8.432974E2,4.6193872E2,2.3738043E1,2.663891E1,3.0652712E1,1.4302307E2,2.334912E1,4.3157757E1,3.2763674E0,3.465256E0,9.172188E1,1.08574066E2,6.7022125E1,9.361173E0,4.4355713E1,7.709966E1,7.942395E2,6.097786E1,1.7592188E2,3.0143158E0],"tree_param":{"num_deleted":"0","num_feature":"20","num_nodes":"59","size_leaf_vector":"1"}},{"base_weights":[-5.0609716E-4,1.4219002E-1,-1.7941903E-1,4.1129205E-1,7.71744E-2,-9.332525E-2,-3.9366403E-1,6.354619E-1,3.5077614E-1,2.765909E-1,2.4273025E-3,-1.7357871E-1,6.41308E-2,-1.4330587E-1,-4.472985E-1,5.007453E-1,6.922142E-1,5.51168E-1,2.8280056E-1,3.6638804E-2,3.2660067E-1,8.911718E-2,-1.3436243E-1,-2.4425629E-1,-2.4448922E-2,2.571356E-1,-6.0121413E-2,-4.5956224E-1,-2.2770587E-2,-3.535487E-1,-5.990738E-1,3.3434752E-2,1.9948488E-2,9.824049E-3,3.5383683E-2,1.6575387E-2,3.0117217E-2,1.7246751E-2,4.1724388E-3,-2.0402267E-3,1.7851068E-2,2.8643174E-2,1.34481015E-2,-1.049973E-3,7.978649E-3,-3.2738955E-3,-2.1186605E-2,-1.08282855E-2,-2.6143892E-2,1.12835005E-4,-1.3631652E-2,3.6228658E-3,1.5864408E-2,-1.04390755E-2,-1.16545205E-4,-1.774059E-2,-3.4471925E-2,3.728218E-4,-3.2210704E-2,-2.6998699E-2,-1.5169427E-2,-2.6643341E-2,-3.5359994E-2],"categories":[],"categories_nodes":[],"categories_segments":[],"categories_sizes":[],"default_left":[0,0,0,0,0,0,0,0,0,0,0,0,0,0,0,0,0,0,0,0,0,0,0,0,0,0,0,0,0,0,0,0,0,0,0,0,0,0,0,0,0,0,0,0,0,0,0,0,0,0,0,0,0,0,0,0,0,0,0,0,0,0,0],"id":23,"left_children":[1,3,5,7,9,11,13,15,17,19,21,23,25,27,29,31,33,35,37,39,41,43,45,47,49,51,53,55,57,59,61,-1,-1,-1,-1,-1,-1,-1,-1,-1,-1,-1,-1,-1,-1,-1,-1,-1,-1,-1,-1,-1,-1,-1,-1,-1,-1,-1,-1,-1,-1,-1,-1],"loss_changes":[5.0093735E2,1.909438E2,1.6054489E2,2.8588257E1,1.3106136E2,7.850351E1,3.344214E1,3.095581E0,2.26548E1,2.8754318E1,7.586328E1,4.3364265E1,5.032437E1,1.6828026E1,2.9022339E1,2.0760765E0,2.2686157E0,4.55661E0,1.5485107E1,1.0300716E1,2.800206E1,3.0383728E1,4.9439327E1,2.1424347E1,8.777215E0,9.10627E0,1.0970766E1,2.6893349E0,6.032315E0,1.1735489E1,5.228821E0,0E0,0E0,0E0,0E0,0E0,0E0,0E0,0E0,0E0,0E0,0E0,0E0,0E0,0E0,0E0,0E0,0E0,0E0,0E0,0E0,0E0,0E0,0E0,0E0,0E0,0E0,0E0,0E0,0E0,0E0,0E0,0E0],"parents":[2147483647,0,0,1,1,2,2,3,3,4,4,5,5,6,6,7,7,8,8,9,9,10,10,11,11,12,12,13,13,14,14,15,15,16,16,17,17,18,18,19,19,20,20,21,21,22,22,23,23,24,24,25,25,26,26,27,27,28,28,29,29,30,30],"right_children":[2,4,6,8,10,12,14,16,18,20,22,24,26,28,30,32,34,36,38,40,42,44,46,48,50,52,54,56,58,60,62,-1,-1,-1,-1,-1,-1,-1,-1,-1,-1,-1,-1,-1,-1,-1,-1,-1,-1,-1,-1,-1,-1,-1,-1,-1,-1,-1,-1,-1,-1,-1,-1],"split_conditions":[2E-1,-1.25E0,1.5E1,-2.6E0,-1.8E1,1E0,1E0,5.3333336E-1,-4.4E1,1E0,5E0,8.3333336E-2,-2.3E1,-7.5E-1,6.1E1,-1.3E1,1.22E2,1E0,2.38E2,2E0,-7.7E1,0E0,4.2E1,2.5E0,1.65E0,1E0,1E0,2.6666667E0,4.25E0,2E1,9.7E1,3.3434752E-2,1.9948488E-2,9.824049E-3,3.5383683E-2,1.6575387E-2,3.0117217E-2,1.7246751E-2,4.1724388E-3,-2.0402267E-3,1.7851068E-2,2.8643174E-2,1.34481015E-2,-1.049973E-3,7.978649E-3,-3.2738955E-3,-2.1186605E-2,-1.08282855E-2,-2.6143892E-2,1.12835005E-4,-1.3631652E-2,3.6228658E-3,1.5864408E-2,-1.04390755E-2,-1.16545205E-4,-1.774059E-2,-3.4471925E-2,3.728218E-4,-3.2210704E-2,-2.6998699E-2,-1.5169427E-2,-2.6643341E-2,-3.5359994E-2],"split_indices":[19,19,16,19,16,13,9,18,16,13,9,18,16,18,16,16,12,13,13,6,16,18,16,19,19,0,0,3,3,12,16,0,0,0,0,0,0,0,0,0,0,0,0,0,0,0,0,0,0,0,0,0,0,0,0,0,0,0,0,0,0,0,0],"split_type":[0,0,0,0,0,0,0,0,0,0,0,0,0,0,0,0,0,0,0,0,0,0,0,0,0,0,0,0,0,0,0,0,0,0,0,0,0,0,0,0,0,0,0,0,0,0,0,0,0,0,0,0,0,0,0,0,0,0,0,0,0,0,0],"sum_hessian":[1.9619379E4,1.0914485E4,8.704894E3,2.1228025E3,8.791683E3,6.210612E3,2.494282E3,4.4922638E2,1.6735762E3,2.3962007E3,6.3954824E3,4.11377E3,2.0968416E3,4.407227E2,2.0535593E3,1.3606448E2,3.131619E2,4.2210452E2,1.2514717E3,4.1357193E2,1.9826287E3,3.914827E3,2.4806555E3,2.790582E3,1.3231879E3,8.207993E2,1.2760424E3,1.208439E2,3.1987878E2,1.271499E3,7.820603E2,4.9239414E1,8.682507E1,9.885227E0,3.0327667E2,8.117228E1,3.4093225E2,9.5353973E2,2.979319E2,3.3376614E2,7.98058E1,3.7433466E2,1.6082941E3,1.527762E3,2.387065E3,2.0046696E3,4.759858E2,2.5399304E3,2.5065182E2,1.1955343E3,1.2765346E2,2.0220401E2,6.185953E2,3.5646368E2,9.195787E2,8.47626E1,3.6081295E1,3.0598373E2,1.3895054E1,2.6750928E2,1.00398975E3,4.8873178E2,2.9332855E2],"tree_param":{"num_deleted":"0","num_feature":"20","num_nodes":"63","size_leaf_vector":"1"}},{"base_weights":[-8.2751346E-4,-1.369841E-1,2.1428406E-1,9.395264E-2,-2.068171E-1,-8.469665E-2,2.8819168E-1,2.5459325E-1,-2.9988434E-2,-3.3645475E-1,-1.3365741E-1,2.074179E-1,-1.9698666E-1,2.1734767E-1,5.687975E-1,3.4693038E-1,1.31034E-1,-2.5716195E-1,8.257409E-2,-1.17738515E-1,-3.862054E-1,-5.2787725E-2,-2.3076203E-1,-3.0927968E-1,2.948748E-1,-4.0900028E-1,-9.830483E-2,1.5058537E-1,3.9480668E-1,3.579607E-1,6.8119466E-1,1.0998784E-2,2.2200001E-2,3.3712597E-3,1.8575316E-2,-1.8104877E-2,-7.776856E-3,6.981743E-4,2.5252609E-2,-2.9619392E-3,-2.82604E-2,-2.3728734E-2,-1.4834556E-2,3.3384792E-3,-5.2257376E-3,-1.7853245E-2,-8.87427E-3,-2.1592432E-3,-2.7790954E-2,1.9048765E-2,1.3447198E-3,-1.7565219E-2,-2.7100924E-2,3.0139736E-3,-8.25264E-3,3.3549212E-3,1.3103971E-2,3.065229E-3,2.3932058E-2,5.1003683E-2,1.673813E-2,2.9030187E-2,4.3035325E-2],"categories":[],"categories_nodes":[],"categories_segments":[],"categories_sizes":[],"default_left":[0,0,0,0,0,0,0,0,0,0,0,0,0,0,0,0,0,0,0,0,0,0,0,0,0,0,0,0,0,0,0,0,0,0,0,0,0,0,0,0,0,0,0,0,0,0,0,0,0,0,0,0,0,0,0,0,0,0,0,0,0,0,0],"id":24,"left_children":[1,3,5,7,9,11,13,15,17,19,21,23,25,27,29,31,33,35,37,39,41,43,45,47,49,51,53,55,57,59,61,-1,-1,-1,-1,-1,-1,-1,-1,-1,-1,-1,-1,-1,-1,-1,-1,-1,-1,-1,-1,-1,-1,-1,-1,-1,-1,-1,-1,-1,-1,-1,-1],"loss_changes":[4.6783728E2,1.5777E2,1.3683652E2,4.523963E1,7.119064E1,4.031909E1,9.856714E1,1.1244217E1,3.2836655E1,2.9431152E1,3.7704956E1,1.5520692E1,1.8527805E1,4.6920944E1,2.3456207E1,6.8738327E0,6.4730916E0,4.48048E0,2.4888447E1,1.3145021E1,1.7313232E1,1.62215E1,1.4620224E1,3.2505903E0,6.7393703E0,1.9704857E0,6.4343767E0,2.6818275E1,3.0261337E1,5.032486E0,1.1259827E1,0E0,0E0,0E0,0E0,0E0,0E0,0E0,0E0,0E0,0E0,0E0,0E0,0E0,0E0,0E0,0E0,0E0,0E0,0E0,0E0,0E0,0E0,0E0,0E0,0E0,0E0,0E0,0E0,0E0,0E0,0E0,0E0],"parents":[2147483647,0,0,1,1,2,2,3,3,4,4,5,5,6,6,7,7,8,8,9,9,10,10,11,11,12,12,13,13,14,14,15,15,16,16,17,17,18,18,19,19,20,20,21,21,22,22,23,23,24,24,25,25,26,26,27,27,28,28,29,29,30,30],"right_children":[2,4,6,8,10,12,14,16,18,20,22,24,26,28,30,32,34,36,38,40,42,44,46,48,50,52,54,56,58,60,62,-1,-1,-1,-1,-1,-1,-1,-1,-1,-1,-1,-1,-1,-1,-1,-1,-1,-1,-1,-1,-1,-1,-1,-1,-1,-1,-1,-1,-1,-1,-1,-1],"split_conditions":[3.5E-1,-7E0,0E0,4.9E1,-1.5E1,1E0,1.8E0,-1.5E-1,6E0,1E0,2.6666668E-1,4.4E1,-3.6E1,3.8E1,2E0,3.5E1,1.45674E3,-5E-1,6.3E1,3.25E0,-4.6E1,1E0,-1.15E0,6.98E2,5E-2,6.5E-1,1E0,1.8E0,1E0,-3.6E0,4.8E1,1.0998784E-2,2.2200001E-2,3.3712597E-3,1.8575316E-2,-1.8104877E-2,-7.776856E-3,6.981743E-4,2.5252609E-2,-2.9619392E-3,-2.82604E-2,-2.3728734E-2,-1.4834556E-2,3.3384792E-3,-5.2257376E-3,-1.7853245E-2,-8.87427E-3,-2.1592432E-3,-2.7790954E-2,1.9048765E-2,1.3447198E-3,-1.7565219E-2,-2.7100924E-2,3.0139736E-3,-8.25264E-3,3.3549212E-3,1.3103971E-2,3.065229E-3,2.3932058E-2,5.1003683E-2,1.673813E-2,2.9030187E-2,4.3035325E-2],"split_indices":[19,17,16,12,16,13,19,18,9,13,18,8,16,16,1,16,13,19,16,6,16,0,19,17,18,18,0,5,9,18,16,0,0,0,0,0,0,0,0,0,0,0,0,0,0,0,0,0,0,0,0,0,0,0,0,0,0,0,0,0,0,0,0],"split_type":[0,0,0,0,0,0,0,0,0,0,0,0,0,0,0,0,0,0,0,0,0,0,0,0,0,0,0,0,0,0,0,0,0,0,0,0,0,0,0,0,0,0,0,0,0,0,0,0,0,0,0,0,0,0,0,0,0,0,0,0,0,0,0],"sum_hessian":[1.5971213E4,9.780764E3,6.190449E3,2.2708267E3,7.509937E3,1.2269371E3,4.963512E3,9.8853186E2,1.2822949E3,2.707932E3,4.8020054E3,3.4044534E2,8.8649176E2,3.9644019E3,9.991102E2,5.647101E2,4.2382178E2,4.244288E2,8.578661E2,5.024413E2,2.2054907E3,2.6208662E3,2.1811392E3,4.8915413E1,2.915299E2,2.8056512E2,6.0592664E2,2.8820044E3,1.0823973E3,3.4887256E2,6.502377E2,2.461038E2,3.1860632E2,3.3617773E2,8.764404E1,2.0755199E2,2.168768E2,7.389013E2,1.1896481E2,4.4535095E2,5.7090378E1,1.1076788E3,1.0978118E3,7.914008E2,1.8294653E3,6.4539636E2,1.5357428E3,2.4089888E1,2.4825523E1,2.2032059E2,7.120934E1,1.982265E2,8.233863E1,1.7951642E2,4.2641022E2,1.648904E3,1.2331005E3,2.1777948E2,8.6461786E2,1.0354892E1,3.3851764E2,4.19437E2,2.3080066E2],"tree_param":{"num_deleted":"0","num_feature":"20","num_nodes":"63","size_leaf_vector":"1"}},{"base_weights":[1.8673576E-3,2.8485455E-2,-2.1907967E-1,4.5324583E-2,-9.120024E-2,-4.1914532E-1,-1.7492163E-1,-7.817163E-2,6.139232E-2,-6.17643E-2,-3.1994683E-1,-2.247138E-1,-4.821117E-1,-2.0371331E-1,5.391368E-2,7.948031E-2,-1.8696427E-1,1.0979472E-1,1.7945629E-2,-4.7798835E-2,-4.1935354E-1,-3.3775902E-1,5.5739117E-1,2.9235631E-2,-2.4725084E-1,8.416638E-2,-5.020611E-1,